tree
version=v4
num_class=1
num_tree_per_iteration=1
label_index=0
max_feature_idx=66
objective=binary sigmoid:1
feature_names=Fraction_inspired_oxygen_mean Fraction_inspired_oxygen_min Fraction_inspired_oxygen_max Glucose_mean Glucose_min Glucose_max Heart_Rate_mean Heart_Rate_min Heart_Rate_max Mean_blood_pressure_mean Mean_blood_pressure_min Mean_blood_pressure_max Diastolic_blood_pressure_mean Diastolic_blood_pressure_min Diastolic_blood_pressure_max Systolic_blood_pressure_mean Systolic_blood_pressure_min Systolic_blood_pressure_max Oxygen_saturation_mean Oxygen_saturation_min Oxygen_saturation_max Respiratory_rate_mean Respiratory_rate_min Respiratory_rate_max Temperature_mean Temperature_min Temperature_max Weight_mean Weight_min Weight_max pH_mean pH_min pH_max Fraction_inspired_oxygen_range Glucose_range Heart_Rate_range Mean_blood_pressure_range Diastolic_blood_pressure_range Systolic_blood_pressure_range Oxygen_saturation_range Respiratory_rate_range Temperature_range Weight_range pH_range Fraction_inspired_oxygen_min_to_mean Fraction_inspired_oxygen_max_to_mean Glucose_min_to_mean Glucose_max_to_mean Heart_Rate_min_to_mean Heart_Rate_max_to_mean Mean_blood_pressure_min_to_mean Mean_blood_pressure_max_to_mean Diastolic_blood_pressure_min_to_mean Diastolic_blood_pressure_max_to_mean Systolic_blood_pressure_min_to_mean Systolic_blood_pressure_max_to_mean Oxygen_saturation_min_to_mean Oxygen_saturation_max_to_mean Respiratory_rate_min_to_mean Respiratory_rate_max_to_mean Temperature_min_to_mean Temperature_max_to_mean Weight_min_to_mean Weight_max_to_mean pH_min_to_mean pH_max_to_mean is_outlier
feature_infos=[-5.1993375826055752:5.1993375827034196] [-5.1993375826055752:5.1993375827034196] [-5.1993375826055752:5.1993375827034196] [-5.1993375826055752:5.1993375827034196] [-5.1993375826055752:5.1993375827034196] [-5.1993375826055752:5.1993375827034196] [-5.1993375826055752:5.1993375827034196] [-5.1993375826055752:5.1993375827034196] [-5.1993375826055752:5.1993375827034196] [-5.1993375826055752:5.1993375827034196] [-5.1993375826055752:5.1993375827034196] [-5.1993375826055752:5.1993375827034196] [-5.1993375826055752:5.1993375827034196] [-5.1993375826055752:5.1993375827034196] [-5.1993375826055752:5.1993375827034196] [-5.1993375826055752:5.1993375827034196] [-5.1993375826055752:5.1993375827034196] [-5.1993375826055752:5.1993375827034196] [-5.1993375826055752:5.1993375827034196] [-5.1993375826055752:5.1993375827034196] [-5.1993375826055752:5.1993375827034196] [-5.1993375826055752:5.1993375827034196] [-5.1993375826055752:5.1993375827034196] [-5.1993375826055752:5.1993375827034196] [-5.1993375826055752:5.1993375827034196] [-5.1993375826055752:5.1993375827034196] [-5.1993375826055752:5.1993375827034196] [-5.1993375826055752:5.1993375827034196] [-5.1993375826055752:5.1993375827034196] [-5.1993375826055752:5.1993375827034196] [-5.1993375826055752:5.1993375827034196] [-5.1993375826055752:5.1993375827034196] [-5.1993375826055752:5.1993375827034196] [-5.1993375826055752:5.1993375827034196] [-5.1993375826055752:5.1993375827034196] [-5.1993375826055752:5.1993375827034196] [-5.1993375826055752:5.1993375827034196] [-5.1993375826055752:5.1993375827034196] [-5.1993375826055752:5.1993375827034196] [-5.1993375826055752:5.1993375827034196] [-5.1993375826055752:5.1993375827034196] [-5.1993375826055752:5.1993375827034196] [-5.1993375826055752:5.1993375827034196] [-5.1993375826055752:5.1993375827034196] [-5.1993375826055752:5.1993375827034196] [-5.1993375826055752:5.1993375827034196] [-5.1993375826055752:5.1993375827034196] [-5.1993375826055752:5.1993375827034196] [-5.1993375826055752:5.1993375827034196] [-5.1993375826055752:5.1993375827034196] [-5.1993375826055752:5.1993375827034196] [-5.1993375826055752:5.1993375827034196] [-5.1993375826055752:5.1993375827034196] [-5.1993375826055752:5.1993375827034196] [-5.1993375826055752:5.1993375827034196] [-5.1993375826055752:5.1993375827034196] [-5.1993375826055752:5.1993375827034196] [-5.1993375826055752:5.1993375827034196] [-5.1993375826055752:5.1993375827034196] [-5.1993375826055752:5.1993375827034196] [-5.1993375826055752:5.1993375827034196] [-5.1993375826055752:5.1993375827034196] [-5.1993375826055752:5.1993375827034196] [-5.1993375826055752:5.1993375827034196] [-5.1993375826055752:5.1993375827034196] [-5.1993375826055752:5.1993375827034196] [-1:1]
tree_sizes=1006 1003 997 998 996 999 1002 1000 981 979 1002 1004 1004 995 1003 1003 998 1000 999 993 1004 1010 974 1010 1006 1004 978 1020 1007 1010 1004 981 957 1007 989 972 1002 1005 1007 983 1023 1000 996 1009 1003 1022 1008 1002 1016 998 988 1011 1007 1011 1012 1003 987 994 1010 989 998 996 988 1013 1014 989 983 986 1015 989 1009 963 1005 1023 1019 989 997 1017 1012 992 972 1001 1023 1019 988 1000 1000 1014 1017 1019 1009 1014 973 1020 988 1016 1010 1008 1013 1021 1017 996 1009 1030 1021 1013 980 1021 1000 965 1013 1018 991 972 1018 985 1017 1017 994 996 1021 1010 1011 989 995 950 991 995 996 984 995 987 990 1022 969 989 979 994 1012 995 985 1004 1017 1016 1018 999 1012 1008 995 987 967 1022 1002 974 989 1017 994 1015 984 997 1016 1019 996 988 999 1005 1019 1011 1017 998 1018 974 995 1018 1018 1018 993 1000 1012 967 972 988 1017 1017 1013 995 1019 1001 967 995 985 1018 990 986 1012 982 965 996 1008 991 1019 998 981 966 959 1014 999 1016 1008 987 1016 1000 1009 995 983 970 1013 980 1013 997 1015 1023 991 990 998 993 1000 977 964 1009 998 971 962 991 988 999 1010 1025 977 1018 1015 988 999 1020 1016 1002 1015 1013 986 1009 1017 971 990 1010 981 1008 973 1008 1017 991 984 998 1013 983 1009 1016 1009 994 1016 952 1018 995 973 1010 1014 1021 978 991 973 1007 1016 1011 989 872 1015 962 984 1006 1022 957 997 978 1015 1009 955 987 1009 995 997 977 996 967 1021 989 1013 991 1002 998 1000 1015 972 849 1013 955 1010 1018 1010 1013 1002 980 979 1003 1017 1020 980 1017 980 888 1012 992 1006 956 1023 1017 985 985 1006 1001 1018 1019 991 1001 976 1015 1020 977 1005 1014 972 1018 992 993 849 999 968 1010 1021 964 966 961 836 961 1014 989 964 1014 1014 969 996 971 1008 969 942 992 970 974 988 977 974 986 1021 999 1021 1013 966 1012 989 941 1015 995 992 984 814 980 970 1002 995 971 969 1019 993 998 942 1000 975 1011 958 1009 1013 995 964 985 997 842 962 974 969 993 997 991 999 993 987 996 967 993 1015 975 1015 991 970 995 963 959 959 1008 992 1011 983 973 970 976 961 988 976 995 1002 1001 991 993 1000 973 999 1008 995 983 955 1000 968 1018 938 1014 1017 989 935 992 991 1013 976 940 987 1004 994 972 958 975 1008 852 964 967 994 995 988 963 967 949 1015 1018 1016 983 957 988 980 962 1000 982 969 960 993 989 1013 1012 1017 993 994 1011 996 973 973 1012 960 994 969 1020 973 978 969 953 995 972 1008 971 964 994 997 845 976 958 989 971 1000 1014 970 963 1000 988 983 963 975 959 1024 965 970 1018 972 1018 958 992 1003 994 1015 986 957 994 989 968 843 1017 985 1018 1018 1016 977 962 996 995 1014 967 955 987 989 994 973 983 994 998 997 1015 974 994 980 994 939 973 960 1026 977 998 992 812 990 979 978 1015 990 976 971 964 1016 972 1016 1004 997 976 986 976 1015 995 1014 1012 979 958 991 1013 962 1020 979 960 973 1005 878 994 988 994 979 966 953 992 1007 991 1009 972 1004 1012 1011 962 1006 973 965 969 970 989 1016 1007 999 1000 1012 975 979 968 813 998 954 989 973 970 998 974 1011 969 999 859 1000 987 1019 991 947 982 1002 956 971 1010 988 978 844 991 990 976 971 977 1014 1018 971 1012 969 1000 990 996 960 961 961 1004 950 953 1014 971 975 994 992 978 1017 1017 1003 996 999 993 953 981 989 991 963 966 996 996 973 1004 1014 998 1021 1016 995 972 971 997 1017 1022 871 1017 1004 1019 995 1015 935 966 1011 955 1021 969 1014 1019 995 1019 954 1011 1013 976 1012 991 980 1002 990 994 1008 969 954 967 986 1007 939 981 1024 990 993 991 1016 974 1009 985 933 971 981 1000 968 846 968 969 991 968 1009 963 990 758 987 1019 998 1019 998 958 1009 980 1014 977 841 972 999 758 950 1017 957 966 971 974 954 1022 988 1020 975 1023 998 968 979 1004 990 1011 1008 962 976 1014 973 1003 1017 1021 1022 972 990 942 970 997 960 973 935 961 1023 991 1013 1012 1012 1015 978 995 978 995 1020 982 978 993 962 981 1009 966 966 972 955 1018 1019 965 1022 954 993 968 1000 973 955 1020 844 1006 983 986 982 933 979 997 975 953 1016 999 1000 1008 1000 995 1011 982 994 932 1019 974 992 972 957 974 1015 963 1018 1003 964 984 1003 1019 959 1003 971 1016 984 963 999 985 926 1021 995 951 1001 1018 1018 1005 1021 1021 979 1011 1018 993 1023 997 997 963 1018 974 999 977 985 1017 990 975 959 972 1019 997 995 996 930 1017 988 1021 982 1022 967 972 1011 1019 1012 990 993 1015 999 983 996 962 997 1017 1018 968 953 1022 976 937 951 1001 1019 956 973 993 963 842 1018 970 975 1019 1012 970 1006 991 961 995 950 943 1015 1000 1000 1019 958 1017 1024 992 984 998 1016 943 996 979 993 998

Tree=0
num_leaves=8
num_cat=0
split_feature=16 56 43 62 23 19 8
split_gain=254.031 109.835 82.5439 98.9729 61.1687 46.8247 45.7777
threshold=-0.3251627478699432 -0.51025778268062716 -0.83462127992546298 -0.71822463279829818 -0.42849656951077181 -0.87281992096787142 -0.8296612398505504
decision_type=2 2 2 2 2 2 2
left_child=1 4 5 -4 -1 -2 -3
right_child=2 6 3 -5 -6 -7 -8
leaf_value=-0.052461559979279905 -0.051890639645713665 -0.053349953514798119 -0.053362771744405887 -0.051918390885534967 -0.050144988070592603 -0.053631254241913125 -0.051636977230668221
leaf_weight=47.816784605383873 40.305287465453148 54.025846436619759 149.14090964198112 548.04865893721581 234.57503560185432 200.94091080129147 314.579381108284
leaf_count=175 135 222 621 1933 632 863 1066
internal_value=-0.0539075 -0.0512336 -0.0524757 -0.0522124 -0.0504847 -0.0532812 -0.0518604
internal_weight=0 650.997 938.436 697.19 282.392 241.246 368.605
internal_count=5647 2095 3552 2554 807 998 1288
is_linear=0
shrinkage=0.0492061


Tree=1
num_leaves=8
num_cat=0
split_feature=21 16 62 65 65 30 25
split_gain=320.351 119.948 95.7759 72.5265 59.0634 56.0465 29.1008
threshold=0.15440151592863346 -0.3251627478699432 -0.83171231496315945 -1.023237195520905 -0.85705886871737824 -0.04749290994391072 0.44908040517212011
decision_type=2 2 2 2 2 2 2
left_child=2 6 5 -4 -3 -1 -2
right_child=1 4 3 -5 -6 -7 -8
leaf_value=0.0011951159079827726 0.0038178660934317142 0.00091127275969259971 0.00043013586574010661 0.0017970568374366339 0.0024346235765773561 -0.00066155640517370122 0.0022307428481999785
leaf_weight=65.914722412824631 257.4019565731287 108.63205882906914 139.19154132902622 543.29255570471287 327.28972245752811 87.910441234707832 90.042894497513771
leaf_count=248 675 431 581 1930 1076 413 293
internal_value=0 0.00272085 0.00128028 0.00153329 0.00208454 0.000101358 0.00346129
internal_weight=0 783.367 836.309 682.484 435.922 153.825 347.445
internal_count=5647 2475 3172 2511 1507 661 968
is_linear=0
shrinkage=0.00157845


Tree=2
num_leaves=8
num_cat=0
split_feature=21 30 15 42 25 3 65
split_gain=285.972 87.7928 84.6691 81.0474 56.2316 53.9555 26.6215
threshold=0.15440151592863346 -0.23882425469265309 -0.48476298225385306 0.50741357848578905 -0.63240871057331682 0.15487118106269046 -0.81737815567232086
decision_type=2 2 2 2 2 2 2
left_child=1 4 6 -3 -1 -4 -2
right_child=2 3 5 -5 -6 -7 -8
leaf_value=0.0031414265724179742 0.0020003969273197342 0.0013227131376155879 0.0015268518928891459 -0.00010255789347618345 0.0014438219724527469 0.0028526792355248755 0.003923597950843411
leaf_weight=106.96049571037292 61.147259205579758 347.04842115938663 223.7492880821228 163.98837272822857 227.97287581861019 270.5461143553257 246.73294404149055
leaf_count=316 201 1297 806 721 838 832 636
internal_value=0 0.00134254 0.00281927 0.00085364 0.00204405 0.00228768 0.00360155
internal_weight=0 845.97 802.176 511.037 334.933 494.295 307.88
internal_count=5647 3172 2475 2018 1154 1638 837
is_linear=0
shrinkage=0.00172546


Tree=3
num_leaves=8
num_cat=0
split_feature=21 24 16 29 65 8 25
split_gain=256.383 99.3213 98.258 88.8969 50.2619 34.8216 23.8898
threshold=0.15440151592863346 -1.0706726868829493 -0.3251627478699432 0.17078030407523168 -0.85705886871737824 -0.46413805747616682 0.44908040517212011
decision_type=2 2 2 2 2 2 2
left_child=1 5 6 -3 -4 -1 -2
right_child=2 3 4 -5 -6 -7 -8
leaf_value=0.0010565592429007075 0.0030001194350698945 0.0011800808084977579 0.00070816283875079367 0.00013824750797745009 0.0019258764443911692 0.0027052052092739263 0.0017548720653259029
leaf_weight=69.40015521645546 272.50044599175453 429.52004820108414 111.52657477557659 271.06288833916187 341.5718934237957 85.051423892378807 94.052578717470169
leaf_count=252 675 1559 431 1126 1076 235 293
internal_value=0 0.00103504 0.0021499 0.000789288 0.00164982 0.00205554 0.00272312
internal_weight=0 855.035 819.651 700.583 453.098 154.452 366.553
internal_count=5647 3172 2475 2685 1507 487 968
is_linear=0
shrinkage=0.00138504


Tree=4
num_leaves=8
num_cat=0
split_feature=21 24 16 29 3 31 13
split_gain=230.685 90.4377 87.7399 81.7282 45.75 30.7483 0.772338
threshold=0.15440151592863346 -1.0706726868829493 -0.70601371449989025 0.17078030407523168 0.39494832063786206 0.2327767008513234 0.77169769226937812
decision_type=2 2 2 2 2 2 2
left_child=1 5 6 -3 -4 -1 -2
right_child=2 3 4 -5 -6 -7 -8
leaf_value=0.0026930334046247925 0.0031512087779197936 0.0012583258369103939 0.0014138251868799122 0.00014899189812779735 0.0024341071000071285 0.00087648911151712967 0.00070929769771444797
leaf_weight=105.69183103740215 245.91119632124901 434.62040996551514 328.98856762051582 271.44428092241287 250.05561509728432 51.766493082046509 10.809145659208296
leaf_count=297 599 1559 1117 1126 725 190 34
internal_value=0 0.00110692 0.00227592 0.000845249 0.001882 0.00218027 0.00308904
internal_weight=0 863.523 835.765 706.065 579.044 157.458 256.72
internal_count=5647 3172 2475 2685 1842 487 633
is_linear=0
shrinkage=0.00154021


Tree=5
num_leaves=8
num_cat=0
split_feature=21 8 43 30 24 42 40
split_gain=208.385 82.8563 72.8985 57.7264 44.0921 36.8311 27.857
threshold=0.15440151592863346 0.056016340930470331 -0.27091062327873733 -0.271093398712763 -0.70439505128582902 0.4172660472052645 -0.88710699475087651
decision_type=2 2 2 2 2 2 2
left_child=1 3 6 -1 -4 -3 -2
right_child=2 5 4 -5 -6 -7 -8
leaf_value=0.0012151179077985129 0.00029515965958638272 0.0017790246401949822 0.0032229586003422782 0.00018907223023071387 0.0020121253833519669 0.00064332416862956238 0.0015822499654353562
leaf_weight=175.58423861861229 54.100338310003281 265.66840863227844 125.09911639988422 324.47106222808361 374.88411778211594 105.83113691210747 296.68916326761246
leaf_count=605 203 847 272 1318 1069 402 931
internal_value=0 0.000972318 0.0019811 0.000569602 0.00235431 0.00148405 0.0014078
internal_weight=0 871.555 850.773 500.055 499.983 371.5 350.79
internal_count=5647 3172 2475 1923 1341 1249 1134
is_linear=0
shrinkage=0.00140599


Tree=6
num_leaves=8
num_cat=0
split_feature=8 62 43 24 31 10 43
split_gain=160.805 75.4412 69.048 62.7088 51.1769 49.9016 6.42108
threshold=0.15115666490892241 -0.77430929334141585 -0.64404520547108324 -1.0025097833197105 -0.34356867305337341 -0.29697536753108456 -0.27091062327873733
decision_type=2 2 2 2 2 2 2
left_child=1 4 -3 6 -1 -5 -2
right_child=3 2 -4 5 -6 -7 -8
leaf_value=0.0012312186127516806 0.0017082357792142446 0.00060137517281520813 0.0016497198326011417 0.0023591782557006074 -0.00046455436868048469 0.0014056791471496236 0.0035354932776646372
leaf_weight=59.942857965826988 38.627343043684959 263.38470602035522 469.55315352976322 288.29595786333084 111.21966172754765 420.48585799336433 92.446980461478233
leaf_count=199 113 991 1486 795 487 1384 192
internal_value=0 0.00107401 0.00128842 0.00204421 0.000107191 0.00181591 0.00312415
internal_weight=0 904.1 732.938 839.856 171.163 708.782 131.074
internal_count=5647 3163 2477 2484 686 2179 305
is_linear=0
shrinkage=0.00153684


Tree=7
num_leaves=8
num_cat=0
split_feature=21 16 24 29 65 31 25
split_gain=262.188 96.7206 86.093 78.0851 52.4752 29.4659 24.1064
threshold=0.15440151592863346 -0.3251627478699432 -1.0706726868829493 0.17078030407523168 -0.85705886871737824 0.2327767008513234 0.44908040517212011
decision_type=2 2 2 2 2 2 2
left_child=2 6 5 -4 -3 -1 -2
right_child=1 4 3 -5 -6 -7 -8
leaf_value=0.0022701947833148545 0.0028032435994171101 0.00066207779413007253 0.0010900952434942917 0.00017482571310306611 0.0018141392231737752 0.00076158422923706796 0.0016405976407589888
leaf_weight=105.18357744812965 271.50362548232079 111.34354853630066 430.05900573730469 266.63702191412449 339.48741926252842 51.291303753852844 93.76810348033905
leaf_count=297 675 431 1559 1126 1076 190 293
internal_value=0 0.00201496 0.000967984 0.000751432 0.0015518 0.00184732 0.00254454
internal_weight=0 816.103 853.171 696.696 450.831 156.475 365.272
internal_count=5647 2475 3172 2685 1507 487 968
is_linear=0
shrinkage=0.00128449


Tree=8
num_leaves=8
num_cat=0
split_feature=21 24 62 16 65 30 27
split_gain=193.666 79.9428 82.108 76.9157 41.4981 31.221 20.256
threshold=0.15440151592863346 -1.0706726868829493 -0.77430929334141585 -0.3251627478699432 -0.85705886871737824 0.096502682311730675 1.8458936345803181
decision_type=2 2 2 2 2 2 2
left_child=1 5 -3 6 -5 -1 -2
right_child=3 2 -4 4 -6 -7 -8
leaf_value=0.0021273574985968781 0.002217594443240148 -0.00023798274422223841 0.00083916258440098037 0.00053418170834428362 0.0015382989234992441 0.00070328394386162294 0
leaf_weight=101.86288037896156 381.67392154037952 133.89164359867573 587.19702732563019 115.78014713525772 360.38523586094379 61.007851496338844 9.0315085053443891
leaf_count=270 936 584 2101 431 1076 217 32
internal_value=0 0.000835163 0.000631029 0.00171685 0.00131355 0.00166231 0.00217273
internal_weight=0 883.959 721.089 866.871 476.165 162.871 390.705
internal_count=5647 3172 2685 2475 1507 487 968
is_linear=0
shrinkage=0.00128523


Tree=9
num_leaves=8
num_cat=0
split_feature=21 24 62 16 65 8 27
split_gain=176.448 73.5275 76.5005 68.9807 37.5661 27.6334 18.1305
threshold=0.15440151592863346 -1.0706726868829493 -0.77430929334141585 -0.3251627478699432 -0.70784488174205773 -0.46413805747616682 1.8458936345803181
decision_type=2 2 2 2 2 2 2
left_child=1 5 -3 6 -5 -1 -2
right_child=3 2 -4 4 -6 -7 -8
leaf_value=0.000899768549510766 0.0024118070295206426 -0.00026441124802692223 0.0009213359915589258 0.00067963122316106568 0.0017140261330922326 0.0024011072706656856 0
leaf_weight=73.213555470108986 388.63567094504833 133.54426734149456 592.19823221862316 139.22980262339115 342.65281102061272 92.092206612229347 9.0315085053443891
leaf_count=252 936 584 2101 505 1002 235 32
internal_value=0 0.00091793 0.000693909 0.00187427 0.00143791 0.00181727 0.00236416
internal_weight=0 891.048 725.742 879.55 481.883 165.306 397.667
internal_count=5647 3172 2685 2475 1507 487 968
is_linear=0
shrinkage=0.00146686


Tree=10
num_leaves=8
num_cat=0
split_feature=21 24 16 27 65 30 25
split_gain=194.706 74.6132 71.021 63.6427 40.5268 28.2254 25.2187
threshold=0.15440151592863346 -1.0706726868829493 -0.3251627478699432 -0.25093232409089478 -0.85705886871737824 0.096502682311730675 0.44908040517212011
decision_type=2 2 2 2 2 2 2
left_child=1 5 6 -3 -4 -1 -2
right_child=2 3 4 -5 -6 -7 -8
leaf_value=0.0027021905946386306 0.0031210889678482028 0.0014329041236819816 0.00071689542087588834 0.00038553862514548279 0.002016632743035816 0.00091770022323445872 0.0017398850337655824
leaf_weight=102.87579990923405 291.18533535301685 293.00285045802593 115.19176003336906 426.84707203507423 359.47245918214321 60.979206308722496 100.40511260926723
leaf_count=270 675 1009 431 1676 1076 217 293
internal_value=0 0.00108731 0.00223742 0.000828566 0.00172673 0.00212578 0.00281022
internal_weight=0 883.705 866.255 719.85 474.664 163.855 391.59
internal_count=5647 3172 2475 2685 1507 487 968
is_linear=0
shrinkage=0.00167179


Tree=11
num_leaves=8
num_cat=0
split_feature=21 62 15 25 31 5 25
split_gain=232.782 82.6925 71.7269 57.6744 49.7962 30.9569 10.7315
threshold=0.15440151592863346 -0.83171231496315945 -0.48476298225385306 -0.17922278926807256 -0.3064115443815551 0.59918993300091838 1.7564451904209337
decision_type=2 2 2 2 2 2 2
left_child=1 4 6 -3 -1 -4 -2
right_child=2 3 5 -5 -6 -7 -8
leaf_value=0.00094753005429818469 0.0023621644910771975 0.0014698454916430394 0.0011771682775506456 0.00070554966086799962 -0.00044138759503477878 0.0019578329039228056 0.00010541228215957812
leaf_weight=56.314992696046829 313.61160297691822 315.37308903038502 333.39376299083233 391.26651790738106 99.952784612774849 178.72275254130363 8.7918345332145673
leaf_count=201 806 1039 1125 1472 460 513 31
internal_value=0 0.000883804 0.00181902 0.00106169 3.80809e-05 0.00147529 0.00231969
internal_weight=0 862.907 834.52 706.64 156.268 512.117 322.403
internal_count=5647 3172 2475 2511 661 1638 837
is_linear=0
shrinkage=0.00122613


Tree=12
num_leaves=8
num_cat=0
split_feature=3 30 42 65 43 25 23
split_gain=136.313 117.538 101.239 88.8018 42.4479 26.3164 19.2996
threshold=0.70506927854950019 -0.20718662027552806 0.60000805678507418 -0.89701737554999317 -0.68756439274803638 -0.069450180415822071 0.70969307525232961
decision_type=2 2 2 2 2 2 2
left_child=1 3 -3 -1 6 -6 -2
right_child=4 2 -4 -5 5 -7 -8
leaf_value=0.00029886603185644425 0.00050351937496523889 0.0011346954561677475 -0.00016828425782666718 0.0020728717594079142 0.003041287801800577 0.0018744011702628305 0.002156294536412395
leaf_weight=97.877661436796188 73.140774711966515 533.14605796337128 196.20201131701469 461.76476672291756 195.65659679472446 181.12238834798336 33.707386374473572
leaf_count=370 271 1790 809 1320 463 533 91
internal_value=0 0.00122209 0.000775674 0.00178017 0.00225376 0.00252852 0.00115646
internal_weight=0 1288.99 729.348 559.642 483.627 376.779 106.848
internal_count=5647 4289 2599 1690 1358 996 362
is_linear=0
shrinkage=0.00159168


Tree=13
num_leaves=8
num_cat=0
split_feature=21 16 24 29 3 16 29
split_gain=240.539 94.2482 88.2206 84.6661 37.9159 14.0059 7.51288
threshold=0.15440151592863346 -0.3251627478699432 -1.0706726868829493 0.17078030407523168 0.15487118106269046 0.83161667114321469 1.6736581109397213
decision_type=2 2 2 2 2 2 2
left_child=2 6 5 -4 -3 -1 -2
right_child=1 4 3 -5 -6 -7 -8
leaf_value=0.0021956954647435367 0.0028203568839217383 0.0011151538875662462 0.0011951413005077934 0.00012435808243571356 0.0021074777360075361 0.00012387544571353565 0.00063147129048576249
leaf_weight=143.18853788077831 359.25870455801487 220.62600417435169 434.84012258052826 272.90019942820072 240.19414129853249 15.093117997050284 14.37982366979122
leaf_count=429 920 779 1559 1126 728 58 48
internal_value=0 0.00217504 0.00104099 0.000794911 0.00166224 0.00204734 0.00276214
internal_weight=0 834.459 866.022 707.74 460.82 158.282 373.639
internal_count=5647 2475 3172 2685 1507 487 968
is_linear=0
shrinkage=0.00146569


Tree=14
num_leaves=8
num_cat=0
split_feature=8 30 15 5 57 43 39
split_gain=149.128 85.7866 65.3898 43.3599 41.1572 39.1291 17.9654
threshold=0.15115666490892241 -0.23882425469265309 -0.67057893391051981 0.16446359565280624 -0.94267076076309719 -1.0189442623729841 1.0000000180025095e-35
decision_type=2 2 2 2 2 2 2
left_child=1 5 6 -4 -3 -1 -2
right_child=2 4 3 -5 -6 -7 -8
leaf_value=0.00034762822447344531 0.0016216511370274723 0.0014123687808089908 0.0010777652135972732 0.0020478714281797791 0.00033746413729096283 0.0018416899128707869 0.0029672553657840947
leaf_weight=66.678533747792244 83.849697187542915 116.51197527348995 292.56987012922764 289.38445942103863 439.13678099215031 298.84853851795197 193.46147082746029
leaf_count=252 247 383 978 815 1656 872 444
internal_value=0 0.000999596 0.0019384 0.00158439 0.000585088 0.0015957 0.0026184
internal_weight=0 921.176 859.265 581.954 555.649 365.527 277.311
internal_count=5647 3163 2484 1793 2039 1124 691
is_linear=0
shrinkage=0.00156184


Tree=15
num_leaves=8
num_cat=0
split_feature=21 24 29 16 25 30 56
split_gain=172.323 71.5048 72.2187 66.6796 32.7918 27.3081 4.73321
threshold=0.15440151592863346 -1.0706726868829493 0.17078030407523168 -0.70601371449989025 0.28586800521308947 0.096502682311730675 0.11656715555893206
decision_type=2 2 2 2 2 2 2
left_child=1 5 -3 6 -5 -1 -2
right_child=3 2 -4 4 -6 -7 -8
leaf_value=0.0026541918153457976 0.0031915747746343887 0.0011856215643651041 2.2789983784169388e-05 0.0021063127494467628 0.0011179954957542379 0.00085193428566060123 0.0018486569654533461
leaf_weight=105.68383921682835 208.20854635536671 455.70692560076714 281.61025033891201 385.01422473788261 230.97816386818886 62.447988092899323 68.858588337898254
leaf_count=270 448 1559 1126 1093 749 217 185
internal_value=0 0.00101728 0.000754985 0.00214198 0.00175949 0.00207103 0.00292159
internal_weight=0 905.449 737.317 893.06 615.992 168.132 277.067
internal_count=5647 3172 2685 2475 1842 487 633
is_linear=0
shrinkage=0.00176248


Tree=16
num_leaves=8
num_cat=0
split_feature=21 8 24 16 29 10 54
split_gain=158.656 87.1394 54.5392 45.438 30.3328 16.849 12.985
threshold=0.35369668319437891 0.056016340930470331 -1.0706726868829493 -0.3251627478699432 0.87355476749504446 -0.091846730086279943 0.5412351286433893
decision_type=2 2 2 2 2 2 2
left_child=1 2 -1 5 -3 -2 -5
right_child=3 4 -4 6 -6 -7 -8
leaf_value=0.0017980469156578872 0.0032472274648460689 0.0020094862833845042 0.00031488486255501328 0.0013628486589520575 0.00025739353266510313 0.00162268078873863 0.0023281627276689897
leaf_weight=123.44287891685963 277.74611181020737 407.89597596228123 469.86146347224712 223.20991821587086 56.137084126472473 69.977267608046532 186.73563867807388
leaf_count=375 615 1235 1787 705 207 194 529
internal_value=0 0.00117749 0.000649587 0.00238779 0.00182076 0.00297067 0.00184469
internal_weight=0 1057.34 593.304 757.669 464.033 347.723 409.946
internal_count=5647 3604 2162 2043 1442 809 1234
is_linear=0
shrinkage=0.00195668


Tree=17
num_leaves=8
num_cat=0
split_feature=21 8 15 18 25 8 25
split_gain=147.138 62.2164 52.9819 50.5438 27.9594 26.5244 11.0084
threshold=0.15440151592863346 0.056016340930470331 -0.48476298225385306 0.92939545857552919 -0.94900458567631285 1.0566175665012232 1.3559141637487957
decision_type=2 2 2 2 2 2 2
left_child=1 3 6 -1 -3 -4 -2
right_child=2 4 5 -5 -6 -7 -8
leaf_value=0.00018157017383682074 0.002712164234056829 0.0025352559185767916 0.0013393393362910243 0.0015122945357184888 0.0011831488241565084 0.0024880466126079442 0.00067590110302667651
leaf_weight=397.19850893318653 331.92327718436718 81.922029763460159 444.81440876424313 124.15765909850597 314.18436604738235 112.81039452552795 23.539106443524361
leaf_count=1522 766 209 1358 401 1040 280 71
internal_value=0 0.000963448 0.00201589 0.000524221 0.00150884 0.00160455 0.00260998
internal_weight=0 917.463 913.087 521.356 396.106 557.625 355.462
internal_count=5647 3172 2475 1923 1249 1638 837
is_linear=0
shrinkage=0.0017972


Tree=18
num_leaves=8
num_cat=0
split_feature=21 3 62 16 29 65 29
split_gain=135.71 82.3731 71.8508 40.0316 23.9167 18.8067 8.39498
threshold=0.35369668319437891 0.70506927854950019 -0.83171231496315945 -0.3251627478699432 0.87355476749504446 -0.85705886871737824 1.6736581109397213
decision_type=2 2 2 2 2 2 2
left_child=1 2 -1 6 -3 -5 -2
right_child=3 4 -4 5 -6 -7 -8
leaf_value=-0.00031088497744176006 0.0022610123970473327 0.001875897473983136 0.00083949430104775257 0.00062100028777436892 0.00033837917515868306 0.0015735349786808633 0.00024784206307277418
leaf_weight=154.8307865858078 341.23561239242554 217.14903125166893 655.43799759447575 103.96700550615788 43.731375023722649 314.24809683859348 14.399970412254332
leaf_count=637 766 612 2199 358 156 876 43
internal_value=0 0.000877449 0.000610583 0.0017687 0.00165488 0.00136266 0.00220312
internal_weight=0 1071.15 810.269 773.851 260.88 418.215 355.636
internal_count=5647 3604 2836 2043 768 1234 809
is_linear=0
shrinkage=0.00156862


Tree=19
num_leaves=8
num_cat=0
split_feature=16 24 29 43 31 15 43
split_gain=131.104 82.9996 84.808 49.6585 23.582 8.77007 4.77782
threshold=-1.1927289722153176 -1.0706726868829493 0.31924511162192099 0.16612810160354771 -0.097331686584987823 -0.15555518443196503 -0.64404520547108324
decision_type=2 2 2 2 2 2 2
left_child=4 3 -3 -2 6 -6 -1
right_child=1 2 -4 -5 5 -7 -8
leaf_value=0.00049331792051577846 0.0012660983266930745 0.0013105045574313308 0.00030896459101261965 0.003128988229156672 0.0018720575017209542 0.00016321088702109075 0.0031586752912924538
leaf_weight=11.581775039434431 135.04828879237175 899.12081715464592 439.80540108680725 110.3867806494236 70.92179112136364 25.073125019669533 166.6859068274498
leaf_count=33 408 2790 1563 237 190 84 342
internal_value=0 0.0011848 0.000989729 0.00217867 0.00258033 0.00153398 0.00304652
internal_weight=0 1584.36 1338.93 245.435 274.263 95.9949 178.268
internal_count=5647 4998 4353 645 649 274 375
is_linear=0
shrinkage=0.001812


Tree=20
num_leaves=8
num_cat=0
split_feature=21 24 29 15 3 30 30
split_gain=189.211 78.5334 76.1042 58.2973 45.0854 29.8885 10.7254
threshold=0.15440151592863346 -1.0706726868829493 0.17078030407523168 -0.48476298225385306 0.15487118106269046 0.096502682311730675 -1.4715547920810799
decision_type=2 2 2 2 2 2 2
left_child=1 5 -3 6 -5 -1 -2
right_child=3 2 -4 4 -6 -7 -8
leaf_value=0.0021794724221066474 0.00032597229676605612 0.00097296612621705148 4.6072607974799833e-05 0.00090111571068868896 0.0018025762280432177 0.00071317110383629749 0.0023033348928998987
leaf_weight=103.21212224662304 14.167863145470617 449.39938472211361 279.10554733872414 240.67157493531704 294.86585213243961 61.534048736095428 326.57469992339611
leaf_count=270 45 1559 1126 806 832 217 792
internal_value=0 0.000841124 0.000628648 0.00175738 0.00141987 0.00170204 0.00224412
internal_weight=0 893.251 728.505 876.28 535.537 164.746 340.743
internal_count=5647 3172 2685 2475 1638 487 837
is_linear=0
shrinkage=0.00135962


Tree=21
num_leaves=8
num_cat=0
split_feature=56 43 30 16 29 23 11
split_gain=131.141 78.4515 84.4072 54.4244 43.7041 29.5268 17.9438
threshold=-0.51025778268062716 -0.83462127992546298 1.0000000180025095e-35 -0.3251627478699432 0.87355476749504446 -0.42849656951077181 0.15288382371197115
decision_type=2 2 2 2 2 2 2
left_child=3 6 -3 5 -5 -1 -2
right_child=1 2 -4 4 -6 -7 -8
leaf_value=0.00079991176190929005 0.0004291147504927532 0.0014068797275439834 0.00050124836307565432 0.0013437690704102463 -6.0153772309167761e-05 0.0022651829765190684 -0.00028804410529141355
leaf_weight=55.27977742254734 162.02827735245228 517.32155202329159 424.12470357120037 253.47113724052906 45.186407580971718 289.40121763944626 115.15458668768406
leaf_count=175 565 1459 1450 743 170 632 453
internal_value=0 0.000811499 0.00101013 0.0016424 0.00111251 0.00206229 0.000108551
internal_weight=0 1218.63 941.446 643.339 298.658 344.681 277.183
internal_count=5647 3927 2909 1720 913 807 1018
is_linear=0
shrinkage=0.00144191


Tree=22
num_leaves=8
num_cat=0
split_feature=16 3 6 64 13 8 9
split_gain=120.373 82.7796 65.1535 29.8452 8.26758 10.2688 4.23616
threshold=-1.1927289722153176 0.70506927854950019 -0.074485884610180242 0.60167310588260514 0.16791159386170024 -0.46413805747616682 0.22461553319996766
decision_type=2 2 2 2 2 2 2
left_child=4 2 -2 -3 5 -1 -6
right_child=1 3 -4 -5 6 -7 -8
leaf_value=0.001278203217485853 0.00037610294727541003 0.0022127787083203831 0.001282152715950469 0.00091476123072213697 0.0011390673885089075 0.0028765840721810985 0
leaf_weight=48.805758327245712 529.69089643657207 301.05560411512852 646.81688125431538 119.45828276872635 14.514847025275232 206.89631608128548 7.5293167680501929
leaf_count=140 1867 776 1966 389 38 444 27
internal_value=0 0.0011556 0.000884278 0.00187741 0.00251393 0.00263132 0.000622896
internal_weight=0 1597.02 1176.51 420.514 277.746 255.702 22.0442
internal_count=5647 4998 3833 1165 649 584 65
is_linear=0
shrinkage=0.00184972


Tree=23
num_leaves=8
num_cat=0
split_feature=21 62 16 16 30 3 56
split_gain=125.655 61.1247 50.225 45.9934 38.3834 38.2332 4.76355
threshold=0.15440151592863346 -0.83171231496315945 -0.24283651864088041 -0.70601371449989025 0.036853364390451712 1.0000000180025095e-35 0.23161861246240778
decision_type=2 2 2 2 2 2 2
left_child=1 4 -3 6 -1 -5 -2
right_child=3 2 -4 5 -6 -7 -8
leaf_value=0.00061993920449575791 0.0024158026020790358 0.0014592061522688939 0.00054966712277075742 0.00078534019023952014 -0.0009154243619355877 0.0016962708008617792 0.0012791032289224096
leaf_weight=81.134541302919388 231.10865013301373 315.08163516223431 461.64752148091793 276.41741529107094 86.594041407108307 371.72846531867981 63.043427512049675
leaf_count=274 471 925 1586 857 387 985 162
internal_value=0 0.000737445 0.000934576 0.00162361 -0.000133021 0.00132747 0.00222061
internal_weight=0 944.458 776.729 942.298 167.729 648.146 294.152
internal_count=5647 3172 2511 2475 661 1842 633
is_linear=0
shrinkage=0.00166464


Tree=24
num_leaves=8
num_cat=0
split_feature=56 43 62 16 29 36 31
split_gain=115.268 70.9705 68.5524 46.2894 38.7803 22.056 11.5579
threshold=-0.51025778268062716 -0.83462127992546298 -0.77430929334141585 1.0246156344426445 0.87355476749504446 0.12392155394605783 0.5872003538443632
decision_type=2 2 2 2 2 2 2
left_child=3 5 -3 4 -1 -2 -5
right_child=1 2 -4 6 -6 -7 -8
leaf_value=0.0023677965592606475 0.00051660407450679856 0.00014281607491562138 0.0014834179700238084 -0.00046800125592002894 0.00075731227876227694 -0.00057820572181674443 0.0012655377228917822
leaf_weight=518.91349257528782 175.94722282886505 196.53929382562637 762.51876866817474 32.905603498220444 88.232143729925156 104.89126965403557 17.497327640652657
leaf_count=1276 608 707 2202 125 269 410 50
internal_value=0 0.000968518 0.00121967 0.00200711 0.0021554 7.46503e-05 3.25058e-05
internal_weight=0 1239.9 959.058 657.549 607.146 280.838 50.4029
internal_count=5647 3927 2909 1720 1545 1018 175
is_linear=0
shrinkage=0.00194245


Tree=25
num_leaves=8
num_cat=0
split_feature=56 43 30 16 29 14 25
split_gain=106.722 66.1298 74.4936 44.9889 38.21 24.6042 11.9113
threshold=-0.51025778268062716 -0.83462127992546298 1.0000000180025095e-35 -0.3251627478699432 0.87355476749504446 0.26663007371672159 0.93678937501956672
decision_type=2 2 2 2 2 2 2
left_child=3 5 -3 6 -5 -2 -1
right_child=1 2 -4 4 -6 -7 -8
leaf_value=0.0022841611100385892 0.00051381741051369396 0.0014827475367291528 0.00047964338355781 0.0014017032223246221 -0.00014810143776288528 -0.00049491973240234593 0.0006528409005900316
leaf_weight=322.69495952129364 163.34316049516201 531.42466597259045 432.98870849609375 261.21603445708752 45.949294194579124 117.65836487710476 32.861130267381668
leaf_count=714 555 1459 1450 743 170 463 93
internal_value=0 0.000830532 0.00104476 0.0017157 0.00114648 6.33878e-05 0.00216505
internal_weight=0 1245.41 964.413 662.721 307.165 281.002 355.556
internal_count=5647 3927 2909 1720 913 1018 807
is_linear=0
shrinkage=0.00172431


Tree=26
num_leaves=8
num_cat=0
split_feature=16 3 42 23 31 13 43
split_gain=101.759 73.4203 71.9828 28.117 20.4883 16.9626 5.28368
threshold=-1.1927289722153176 0.70506927854950019 0.92634904293806153 -0.58021119224217288 -0.097331686584987823 -0.23065891673430902 -0.64404520547108324
decision_type=2 2 2 2 2 2 2
left_child=4 2 -2 -3 6 -6 -1
right_child=1 3 -4 -5 5 -7 -8
leaf_value=0.00029421483430677053 0.00092717713596170192 0.00062960911015937191 -0.0003245949907147452 0.001934440547845649 0.0016184937223230535 0 0.0027551143365441753
leaf_weight=11.985069155693052 1029.4875602126122 99.7034612596035 171.77510346472263 331.6747770011425 81.602120250463486 17.960700258612633 173.57123893499374
leaf_count=33 3177 320 656 845 210 64 342
internal_value=0 0.00099314 0.000740796 0.00166163 0.00222472 0.00126968 0.00265047
internal_weight=0 1632.64 1201.26 431.378 285.119 99.5628 185.556
internal_count=5647 4998 3833 1165 649 274 375
is_linear=0
shrinkage=0.00184792


Tree=27
num_leaves=8
num_cat=0
split_feature=16 56 40 6 59 59 6
split_gain=143.426 83.8363 54.6969 41.745 38.4576 35.4679 22.9547
threshold=-0.3251627478699432 -0.51025778268062716 1.0000000180025095e-35 1.1735572383918411 -1.6869147179164872 -0.42676605618728009 -0.15019722924836762
decision_type=2 2 2 2 2 2 2
left_child=1 6 4 -3 -2 -4 -1
right_child=2 3 5 -5 -6 -7 -8
leaf_value=4.2603550265657477e-06 3.9103990555358283e-06 -0.00045910243273289934 0.00020110500331059895 0.00045294647162886207 -0.00094193302954092423 -0.00048258935333059006 0.00065551043536360854
leaf_weight=131.22639589011669 52.556808561086655 402.75287187099457 115.8084708750248 72.193587571382523 580.42386776208878 476.61225414276123 227.1166408509016
leaf_count=328 130 1130 276 158 1799 1347 479
internal_value=0 6.49563e-06 -0.000612748 -0.000306624 -0.000855813 -0.000339734 0.000434398
internal_weight=0 833.289 1225.4 474.946 632.981 592.421 358.343
internal_count=5647 2095 3552 1288 1929 1623 807
is_linear=0
shrinkage=0.00116379


Tree=28
num_leaves=8
num_cat=0
split_feature=21 64 25 49 62 25 64
split_gain=117.009 53.8844 48.5679 45.7364 45.7199 42.4455 28.0654
threshold=0.15440151592863346 -0.53510058531911497 0.28586800521308947 -0.037252130421826825 -0.83171231496315945 -0.68159629417390166 0.21596962427653585
decision_type=2 2 2 2 2 2 2
left_child=1 5 6 -4 -3 -1 -2
right_child=2 4 3 -5 -6 -7 -8
leaf_value=0.001903403992040845 0.0018051764984133747 -0.00065424922844497114 8.9686430393774353e-06 0.0012215279676578608 0.00037722502537091692 0.0004882430606766001 0.00099928740105481714
leaf_weight=94.436205923557281 373.25039511919022 125.1065715700388 159.84346784651279 179.62801298499107 601.76151205599308 172.27442716062069 266.44175387918949
leaf_count=214 808 500 495 457 1928 530 715
internal_value=0 0.000426673 0.00122067 0.000679029 0.000186963 0.00103944 0.00149013
internal_weight=0 993.579 979.164 339.471 726.868 266.711 639.692
internal_count=5647 3172 2475 952 2428 744 1523
is_linear=0
shrinkage=0.0015946


Tree=29
num_leaves=8
num_cat=0
split_feature=15 40 30 18 8 62 64
split_gain=102.901 71.0458 55.783 44.762 43.7074 39.4873 19.8504
threshold=-0.52959347929705192 1.0000000180025095e-35 -0.04749290994391072 0.87277330008409326 0.84650897447616535 -0.83171231496315945 0.63752776306454473
decision_type=2 2 2 2 2 2 2
left_child=2 3 6 -2 -3 -4 -1
right_child=1 4 5 -5 -6 -7 -8
leaf_value=0.0016149943452617745 -7.182949984980687e-05 0.00051889731179547403 -0.00042350714951029531 0.00077989399413394697 0.0013444282179211444 0.00083270809444384265 0.00065152705209862299
leaf_weight=321.57187202572823 493.99900709092617 499.04309453070164 47.803401425480843 138.64699682593346 178.9795278608799 216.85134567320347 81.234021008014679
leaf_count=691 1659 1486 178 394 426 587 226
internal_value=0 0.000448694 0.00111743 0.000109682 0.000753294 0.00058003 0.00144511
internal_weight=0 1310.67 667.461 632.646 678.023 264.655 402.806
internal_count=5647 3965 1682 2053 1912 765 917
is_linear=0
shrinkage=0.00135393


Tree=30
num_leaves=8
num_cat=0
split_feature=21 64 16 29 64 53 4
split_gain=139.467 58.4857 55.1319 44.887 32.575 26.9918 16.7896
threshold=0.15440151592863346 -0.53510058531911497 -0.3251627478699432 -0.46197682867249451 0.97508507075965511 -1.4120829341690493 -1.393085798857068
decision_type=2 2 2 2 2 2 2
left_child=1 5 6 -3 -4 -1 -2
right_child=2 3 4 -5 -6 -7 -8
leaf_value=-0.00029841093847657004 0.0019578415058281329 0.00060471795468330979 0.00086686732528285188 1.8177180156269171e-05 0.00014975394638289222 0.00092784732115830848 0.0011404404863927372
leaf_weight=14.534744113683699 66.088486880064011 234.40785090625286 409.87409314513206 474.04637244343758 113.84084768593311 244.87464942038059 364.8370236158371
leaf_count=58 110 730 1121 1698 386 686 858
internal_value=0 0.000394713 0.00099173 0.000221672 0.000722786 0.000836863 0.00129636
internal_weight=0 967.864 954.64 708.454 523.715 259.409 430.926
internal_count=5647 3172 2475 2428 1507 744 968
is_linear=0
shrinkage=0.00108181


Tree=31
num_leaves=8
num_cat=0
split_feature=21 3 30 15 3 27 0
split_gain=111.544 64.4843 57.8537 31.6875 27.4815 24.3682 6.02727
threshold=0.39377902494620215 0.70506927854950019 -0.13709362496881702 -0.52959347929705192 0.15487118106269046 0.98157738289019092 0.70209646999882558
decision_type=2 2 2 2 2 2 2
left_child=1 2 -1 6 -5 -3 -2
right_child=3 5 -4 4 -6 -7 -8
leaf_value=0.00069065948270359719 0.0013635480190055886 0.001280933797020269 -9.1800079332573953e-05 0.00047367814544655384 0.0012904379970743343 0 0.0022451999596288632
leaf_weight=392.92444267868996 211.49224293231964 250.26788893342018 500.5563153475523 222.76656380295753 271.00753884017467 42.084286123514175 86.752556845545769
leaf_count=1152 485 653 1744 651 666 141 155
internal_value=0 0.000466177 0.000246393 0.0012352 0.000943654 0.00110028 0.00167325
internal_weight=0 1185.83 893.481 792.019 493.774 292.352 298.245
internal_count=5647 3690 2896 1957 1317 794 640
is_linear=0
shrinkage=0.00155211


Tree=32
num_leaves=8
num_cat=0
split_feature=16 57 8 4 4 43 43
split_gain=98.56 51.3487 58.2959 42.1417 42.5558 21.6019 13.9608
threshold=-0.3251627478699432 -0.94267076076309719 -0.26536475995026898 -1.393085798857068 0.74809290586220178 -1.0189442623729841 -1.9846397641453131
decision_type=2 2 2 2 2 2 2
left_child=3 5 -3 6 -5 -2 -1
right_child=1 2 -4 4 -6 -7 -8
leaf_value=0 0 -0.00020840932695411101 0.00058443734507460468 0.00073141351908547327 0.0016458558176559931 0.0012835968579866346 0.0022483692311964986
leaf_weight=7.2544195502996436 29.414423882961273 353.78396733105183 565.53893664479256 518.25660264492035 197.54067789018154 204.7052881270647 106.44369176030159
leaf_count=23 103 1231 1676 1427 444 542 201
internal_value=0 0.000451381 0.000272293 0.00117361 0.00100238 0.00110659 0.00211146
internal_weight=0 1153.44 919.323 829.495 715.797 234.12 113.698
internal_count=5647 3552 2907 2095 1871 645 224
is_linear=0
shrinkage=0.0015597


Tree=33
num_leaves=8
num_cat=0
split_feature=56 18 40 25 25 27 42
split_gain=99.3482 56.1249 51.471 37.9727 37.3634 28.0789 7.513
threshold=-0.51025778268062716 0.71556195518893806 -0.045136522884389969 0.28586800521308947 -0.63240871057331682 -0.25093232409089478 1.301799344221245
decision_type=2 2 2 2 2 2 2
left_child=4 2 -2 -3 6 -6 -1
right_child=1 3 -4 -5 5 -7 -8
leaf_value=0.0016435559342058014 -0.00012234304339256519 0.0011378433252246616 0.00052941163804077682 0.00012342280434516167 0.0012216864995632701 0.00044686226428191538 0.00022036389670841334
leaf_weight=222.12229447066784 426.16047637164593 278.12336148321629 480.5587262660265 116.27878229320049 191.89487047493458 253.33912149071693 19.615685269236565
leaf_count=473 1433 726 1399 369 465 727 55
internal_value=0 0.000418921 0.000217229 0.000859187 0.00108729 0.000803713 0.00155951
internal_weight=0 1301.12 906.719 394.402 686.972 445.234 241.738
internal_count=5647 3927 2832 1095 1720 1192 528
is_linear=0
shrinkage=0.00138989


Tree=34
num_leaves=8
num_cat=0
split_feature=21 30 64 64 6 31 46
split_gain=153.366 57.7572 48.8769 37.5859 35.8802 27.1228 26.9275
threshold=0.15440151592863346 -0.13709362496881702 0.028962469161045844 0.70618791067947695 0.23164855404989573 -0.6537915866788685 -0.77470659435995015
decision_type=2 2 2 2 2 2 2
left_child=1 3 6 -1 -3 -4 -2
right_child=2 4 5 -5 -6 -7 -8
leaf_value=0.00087034947505658952 0.0016849905132056196 -1.9257596553062911e-05 0 3.8795463155521595e-05 0.00057699741821520085 0.00082706078697882782 0.0010245019407994257
leaf_weight=340.9773732572794 182.44153642654419 368.79715342819691 45.037546709179878 93.936389714479446 160.28336007893085 403.69288882613182 315.38603906333447
leaf_count=975 373 1357 158 334 506 1138 806
internal_value=0 0.000410287 0.00103838 0.000704019 0.00015578 0.000738847 0.00128946
internal_weight=0 963.994 946.558 434.914 529.081 448.73 497.828
internal_count=5647 3172 2475 1309 1863 1296 1179
is_linear=0
shrinkage=0.00108311


Tree=35
num_leaves=8
num_cat=0
split_feature=21 24 35 16 64 25 19
split_gain=166.961 86.4026 72.1825 70.641 38.9186 31.3853 25.7682
threshold=0.35369668319437891 -1.0706726868829493 1.104935547350004 -0.3251627478699432 -0.48461167551207068 0.095243927195692649 -1.229249516953663
decision_type=2 2 2 2 2 2 2
left_child=1 4 -3 5 -1 -2 -5
right_child=3 2 -4 6 -6 -7 -8
leaf_value=0.00061803816431175215 0.00057132474821999606 -0.00068859660884005159 0 0.000301130636256961 -0.00020453570711783092 0 -0.00027328879658987631
leaf_weight=67.26384374499321 229.84999848902225 875.32473002374172 149.85447478294373 70.646667912602425 149.16934901475906 133.43447236716747 392.64976273477077
leaf_count=134 475 2684 381 159 405 334 1075
internal_value=0 -0.000474774 -0.000587158 5.89872e-05 4.00011e-05 0.000366752 -0.000174747
internal_weight=0 1241.61 1025.18 826.581 216.433 363.284 463.296
internal_count=5647 3604 3065 2043 539 809 1234
is_linear=0
shrinkage=0.000928378


Tree=36
num_leaves=8
num_cat=0
split_feature=21 8 16 18 42 65 4
split_gain=110.825 49.8138 45.1745 40.8729 30.6598 29.5967 9.15522
threshold=0.15440151592863346 0.056016340930470331 -0.70601371449989025 0.92939545857552919 0.28352575511349459 -0.85705886871737824 -1.393085798857068
decision_type=2 2 2 2 2 2 2
left_child=1 3 6 -1 -3 -4 -2
right_child=2 4 5 -5 -6 -7 -8
leaf_value=-0.00031236247545140275 0.0028425235826242345 0.0011413943960220726 0.0001593221385185552 0.0008329592324742911 3.0707951454134442e-05 0.0011368780553595429 0.0015584616261782856
leaf_weight=439.33903141319752 52.90033920109272 294.4814130961895 163.63467475771904 138.42851467430592 144.38709573447704 525.52348311245441 252.13612253963947
leaf_count=1522 81 788 508 401 461 1334 552
internal_value=0 0.000327808 0.0012196 -1.92379e-05 0.000798859 0.00091936 0.00184719
internal_weight=0 1016.64 994.195 577.768 438.869 689.158 305.036
internal_count=5647 3172 2475 1923 1249 1842 633
is_linear=0
shrinkage=0.00186629


Tree=37
num_leaves=8
num_cat=0
split_feature=56 64 30 3 10 14 29
split_gain=96.6394 52.9958 63.1018 43.1214 39.0142 23.8496 4.52724
threshold=-0.51025778268062716 0.85167519009407811 1.0000000180025095e-35 0.52141637497857707 -0.29697536753108456 0.26663007371672159 1.6736581109397213
decision_type=2 2 2 2 2 2 2
left_child=3 2 -2 4 -1 -3 -5
right_child=1 5 -4 6 -6 -7 -8
leaf_value=0.0014747911820699143 0.0010887760622472309 0.00019454031167046655 0.0001137985619116066 0.0020450386752633646 0.00027056499120513467 -0.00083754493131548303 7.6384096331024421e-05
leaf_weight=221.38654226064682 556.858682513237 178.52589380741119 455.09452891349792 249.43436644971371 209.66343092918396 128.85839653015137 13.816570326685904
leaf_count=524 1454 565 1436 533 626 472 37
internal_value=0 0.00045011 0.00066114 0.00134155 0.000917557 -0.00021705 0.00197637
internal_weight=0 1319.34 1011.95 694.301 431.05 307.384 263.251
internal_count=5647 3927 2890 1720 1150 1037 570
is_linear=0
shrinkage=0.00189754


Tree=38
num_leaves=8
num_cat=0
split_feature=15 3 62 64 6 24 64
split_gain=95.1462 85.9199 54.2849 36.1214 29.9534 25.895 22.5878
threshold=-0.82680544024109881 0.70506927854950019 -0.71822463279829818 0.50418617209793781 -0.038027341364431595 -0.82212996968824503 -0.040417905099794212
decision_type=2 2 2 2 2 2 2
left_child=4 2 -2 -3 5 -1 -6
right_child=1 3 -4 -5 6 -7 -8
leaf_value=0.0014388465898878197 -0.00053128615650338855 0.0013791829293714468 0.00037419798042709275 0.00024257112565252229 0.0020899363414791823 3.1118748475065105e-05 0.00097381843021912475
leaf_weight=63.901082500815392 225.2633695602417 309.11150370538235 872.22358390688896 130.25374686717987 171.52213069796562 103.7089662104845 140.62566129863262
leaf_count=147 794 727 2582 392 333 316 356
internal_value=0 0.000440392 0.000180132 0.00106505 0.00130874 0.000635334 0.00163223
internal_weight=0 1536.85 1097.49 439.365 479.758 167.61 312.148
internal_count=5647 4495 3376 1119 1152 463 689
is_linear=0
shrinkage=0.00167285


Tree=39
num_leaves=8
num_cat=0
split_feature=21 24 16 29 64 8 27
split_gain=168.343 72.5637 66.9831 66.7753 32.9135 29.2596 16.8224
threshold=0.15440151592863346 -1.0706726868829493 -0.3251627478699432 -0.24485437002282162 0.97508507075965511 -0.46413805747616682 1.8458936345803181
decision_type=2 2 2 2 2 2 2
left_child=1 5 6 -3 -4 -1 -2
right_child=2 3 4 -5 -6 -7 -8
leaf_value=0.00027394875166628118 0.0010367870369154873 0.0004314584865730869 0.00064797409523353867 -4.3100552098392933e-05 0.00010255648486812177 0.0010389596466019383 0
leaf_weight=80.171702012419701 418.96347461640835 330.67208364605904 411.06006097793579 469.7481250166893 114.34729909896851 100.26064865291119 9.7887396812438947
leaf_count=252 936 1013 1121 1672 386 235 32
internal_value=0 0.000263934 0.00075879 0.000149752 0.000538122 0.00073422 0.0010121
internal_weight=0 980.853 954.16 800.42 525.407 180.432 428.752
internal_count=5647 3172 2475 2685 1507 487 968
is_linear=0
shrinkage=0.000823162


Tree=40
num_leaves=8
num_cat=0
split_feature=16 39 40 18 6 6 3
split_gain=157.449 81.4984 54.8977 47.6301 39.3441 28.0255 24.8699
threshold=-0.3251627478699432 0.394757981779298 1.0000000180025095e-35 0.92939545857552919 1.1735572383918411 -0.18935233848435226 1.0000000180025095e-35
decision_type=2 2 2 2 2 2 2
left_child=1 4 3 -2 -1 -3 -4
right_child=2 5 6 -5 -6 -7 -8
leaf_value=-0.00025939984907648631 -0.00069820463100837599 3.3026203791176451e-05 -0.00038366592928772418 -5.5221636340536734e-05 0.00042919853204388138 0.00057545676767782248 -7.5966073668655415e-06
leaf_weight=393.81775164604187 510.21725958585739 130.13041473925114 271.50007410347462 128.75602166354656 70.969682767987251 254.98456074297428 327.23753820359707
leaf_count=1088 1590 326 781 339 152 529 842
internal_value=0 0.000101699 -0.000392159 -0.000576132 -0.00014261 0.000404915 -0.000186335
internal_weight=0 849.902 1237.71 638.973 464.787 385.115 598.738
internal_count=5647 2095 3552 1929 1240 855 1623
is_linear=0
shrinkage=0.000890382


Tree=41
num_leaves=8
num_cat=0
split_feature=21 24 35 24 3 43 43
split_gain=109.187 70.0621 56.3161 39.1084 27.734 27.1366 19.1773
threshold=0.35369668319437891 -1.0706726868829493 1.104935547350004 -0.27519274968927315 0.15487118106269046 0.16612810160354771 1.0000000180025095e-35
decision_type=2 2 2 2 2 2 2
left_child=1 5 -3 6 -5 -1 -2
right_child=3 2 -4 4 -6 -7 -8
leaf_value=0.00051957723217096476 0.0010800634768210696 -0.00010064323383578074 0.0011063399161368081 0.00032507857787145936 0.0012324743992178421 0.0019715282065137039 0.002201491948256658
leaf_weight=118.89261132478714 159.23602290451527 828.38238631188869 146.24844789505005 251.45753479003906 265.78152284026146 95.281072482466698 161.7831375002861
leaf_count=339 397 2684 381 706 634 200 306
internal_value=0 0.000295264 7.65539e-05 0.00116771 0.00081371 0.00123072 0.00169345
internal_weight=0 1188.8 974.631 838.258 517.239 214.174 321.019
internal_count=5647 3604 3065 2043 1340 539 703
is_linear=0
shrinkage=0.00182407


Tree=42
num_leaves=8
num_cat=0
split_feature=21 24 29 43 24 30 40
split_gain=169.029 69.7231 65.5918 58.1859 41.5063 31.5221 24.6568
threshold=0.15440151592863346 -1.0706726868829493 -0.24485437002282162 -0.27091062327873733 -0.70439505128582902 0.096502682311730675 -0.88710699475087651
decision_type=2 2 2 2 2 2 2
left_child=1 5 -3 6 -5 -1 -2
right_child=3 2 -4 4 -6 -7 -8
leaf_value=0.00087812780060799313 0 0.00037644098721203664 -4.4162747736973916e-05 0.0012149439106201054 0.00068060810246462194 0.00016346944383910817 0.00050385816648525748
leaf_weight=113.4891994446516 60.326964616775513 332.05294118821621 471.28169859945774 141.6835757791996 421.95522759854794 68.185465633869171 333.34662607312202
leaf_count=270 203 1013 1672 272 1069 217 931
internal_value=0 0.00022699 0.000126789 0.000669988 0.000829515 0.000638264 0.000426351
internal_weight=0 985.009 803.335 957.312 563.639 181.675 393.674
internal_count=5647 3172 2685 2475 1341 487 1134
is_linear=0
shrinkage=0.000737242


Tree=43
num_leaves=8
num_cat=0
split_feature=21 24 29 24 8 8 43
split_gain=106.067 55.3399 56.0053 45.3581 44.4674 26.832 24.1548
threshold=0.15440151592863346 -1.0706726868829493 -0.24485437002282162 -0.70439505128582902 1.0566175665012232 -0.46413805747616682 1.0000000180025095e-35
decision_type=2 2 2 2 2 2 2
left_child=1 5 -3 6 -5 -1 -2
right_child=3 2 -4 4 -6 -7 -8
leaf_value=0.00019182190661392443 0.00087614270055092272 0.00052165470519612521 -0.00031289873090235371 0.00049456100752348511 0.001445506808835194 0.0015174363007343021 0.0021069051980386671
leaf_weight=84.450586646795273 114.27994784712791 346.42627774178982 489.85096274316311 576.55164049565792 180.08021062612534 105.40432411432266 128.74246522784233
leaf_count=252 285 1013 1672 1566 394 235 230
internal_value=0 0.000213044 2.53088e-05 0.000956909 0.00073767 0.00098304 0.00158414
internal_weight=0 1026.13 836.277 999.654 756.632 189.855 243.022
internal_count=5647 3172 2685 2475 1960 487 515
is_linear=0
shrinkage=0.00160018


Tree=44
num_leaves=8
num_cat=0
split_feature=21 64 62 15 35 6 44
split_gain=99.7777 61.1831 54.2397 32.186 19.2073 15.8137 9.15632
threshold=0.39377902494620215 -0.53510058531911497 -0.83171231496315945 -0.52959347929705192 -0.29872808217637331 0.56402009345806003 0.4975200960473023
decision_type=2 2 2 2 2 2 2
left_child=1 5 -3 6 -5 -1 -2
right_child=3 2 -4 4 -6 -7 -8
leaf_value=0.00056475840236776026 0.0017073671545977291 -0.00083805965078991821 0.0002254215988525703 0.00019908984634996557 0.00094568744971476365 0.0014597409016463008 0.000820769226326819
leaf_weight=238.01627449691296 203.4605121165514 144.59000545740128 743.10903699696064 161.44461338222027 343.81776234507561 95.02215339243412 98.132377594709396
leaf_count=661 404 552 2262 464 853 215 236
internal_value=0 0.000271916 4.06917e-05 0.00101517 0.000725205 0.00085793 0.00145915
internal_weight=0 1220.74 887.699 806.855 505.262 333.038 301.593
internal_count=5647 3690 2814 1957 1317 876 640
is_linear=0
shrinkage=0.00161418


Tree=45
num_leaves=8
num_cat=0
split_feature=15 43 24 4 24 19 19
split_gain=134.675 85.1195 66.8333 54.1205 47.1545 42.5655 15.3367
threshold=-0.52959347929705192 0.44941045150770181 -0.87875335406228583 0.98775260346522942 -0.60445117186980091 -0.118274023513389 -0.87281992096787142
decision_type=2 2 2 2 2 2 2
left_child=2 3 6 -2 -3 -4 -1
right_child=1 4 5 -5 -6 -7 -8
leaf_value=0.00095069303513551772 -0.00068087574992271871 0.00043291862084598418 0.00014330907046894659 -0.00010351366722908899 -0.00025234999747360856 -0.00039361481434749658 0.00029297403545753479
leaf_weight=62.448903098702431 769.11033701896667 112.59727451205254 274.86118531227112 194.95361626148224 312.81502029299736 221.28114730119705 122.90996293723583
leaf_count=108 2352 245 662 514 854 631 281
internal_value=0 -0.000416738 8.22148e-05 -0.000569446 -5.86425e-05 -8.93246e-05 0.000554125
internal_weight=0 1389.48 681.501 964.064 425.412 496.142 185.359
internal_count=5647 3965 1682 2866 1099 1293 389
is_linear=0
shrinkage=0.00092913


Tree=46
num_leaves=8
num_cat=0
split_feature=21 24 0 16 3 6 25
split_gain=98.1049 52.7987 53.3683 46.3592 34.2623 25.968 13.7073
threshold=0.15440151592863346 -1.0706726868829493 -0.63045559204330204 -0.70601371449989025 1.0000000180025095e-35 -0.22750965582192276 -0.5724546000631876
decision_type=2 2 2 2 2 2 2
left_child=1 5 -3 6 -5 -1 -2
right_child=3 2 -4 4 -6 -7 -8
leaf_value=0.00023406163481184524 0.0016290163599462573 0.00053380406779739631 -0.00022431584826994267 0.00013526812980708454 0.00076383115016617927 0.0013164959733420942 0.00084763254978536282
leaf_weight=109.23223957419395 109.4342749863863 221.31029622256756 622.60676711797714 299.06824781000614 400.38873818516731 82.029222339391708 195.99418452382088
leaf_count=312 192 625 2060 857 985 175 441
internal_value=0 0.000121769 -1.66477e-05 0.00071739 0.000506204 0.000748905 0.001167
internal_weight=0 1035.18 843.917 1004.89 699.457 191.261 305.428
internal_count=5647 3172 2685 2475 1842 487 633
is_linear=0
shrinkage=0.00133916


Tree=47
num_leaves=8
num_cat=0
split_feature=21 24 24 35 3 43 30
split_gain=162.581 68.3357 63.0837 48.1635 45.2081 41.7619 27.0355
threshold=0.15440151592863346 -1.0706726868829493 -0.82212996968824503 1.104935547350004 0.39494832063786206 1.0000000180025095e-35 0.096502682311730675
decision_type=2 2 2 2 2 2 2
left_child=1 6 5 -3 -4 -2 -1
right_child=2 3 4 -5 -6 -7 -8
leaf_value=0.00019865255863931423 0 -0.0006065045285635213 -0.00027161479069150315 -6.3640305411782446e-05 9.4353707333124956e-05 0.00067101089651947486 -0.00037525059609515624
leaf_weight=117.06873482465744 91.869470834732056 758.40654484927654 447.68065156042576 127.20746339857578 330.17354452610016 110.08390934765339 73.868980258703232
leaf_count=270 233 2352 1239 333 798 205 217
internal_value=0 -0.000443835 -9.65661e-06 -0.000533095 -0.000112278 0.000362759 -9.57746e-06
internal_weight=0 1076.55 979.808 885.614 777.854 201.953 190.938
internal_count=5647 3172 2475 2685 2037 438 487
is_linear=0
shrinkage=0.000765415


Tree=48
num_leaves=8
num_cat=0
split_feature=16 24 3 64 31 9 19
split_gain=154.462 94.1766 83.3364 46.3899 41.5434 14.8933 10.9607
threshold=-1.1927289722153176 -1.0706726868829493 0.70506927854950019 -0.20831170512688213 -0.097331686584987823 -1.4119448934257601 1.0000000180025095e-35
decision_type=2 2 2 2 2 2 2
left_child=4 3 -3 -2 6 -6 -1
right_child=1 2 -4 -5 5 -7 -8
leaf_value=0.00079611029196794618 0.00061121761708231271 -0.00052841409733179611 -3.3772792889917813e-05 -0.00012651068412703213 0.00045211479922503093 -0.00026477716319110489 0.00019226493461335249
leaf_weight=126.83886533975601 108.59207804501057 1129.5525555163622 390.6005579829216 159.64790140092373 26.66331659257412 78.753603577613831 58.94607737660408
leaf_count=238 220 3347 1006 425 54 220 137
internal_value=0 -0.000316928 -0.000404439 0.00016274 0.000381889 -3.55698e-05 0.000634946
internal_weight=0 1788.39 1520.15 268.24 291.202 105.417 185.785
internal_count=5647 4998 4353 645 649 274 375
is_linear=0
shrinkage=0.000901512


Tree=49
num_leaves=8
num_cat=0
split_feature=8 62 43 43 31 12 19
split_gain=146.125 62.6592 62.5297 57.9244 44.7518 39.7348 21.2141
threshold=0.15115666490892241 -0.77430929334141585 -0.64404520547108324 0.16612810160354771 -0.34356867305337341 -0.19526439445762525 1.0000000180025095e-35
decision_type=2 2 2 2 2 2 2
left_child=1 4 -3 5 -1 -2 -5
right_child=3 2 -4 6 -6 -7 -8
leaf_value=0.00026440846750248057 0.00067565279705133075 0 0.0004246649332253426 0.00095952664075599691 -0.00043649690035556986 0.00022223633487528408 0.00054239155559545845
leaf_weight=68.471234515309334 187.96431560814381 301.48829632997513 534.03374338150024 252.94104906916618 127.67416809499264 317.62375459074974 193.07572661340237
leaf_count=199 472 991 1486 549 487 953 510
internal_value=0 0.000185593 0.000274655 0.00059185 -0.000175068 0.000401824 0.000793649
internal_weight=0 1031.67 835.522 951.605 196.145 505.588 446.017
internal_count=5647 3163 2477 2484 686 1425 1059
is_linear=0
shrinkage=0.000734845


Tree=50
num_leaves=8
num_cat=0
split_feature=21 16 35 15 25 25 43
split_gain=103.356 49.3344 46.5604 39.4215 29.4416 14.2326 13.1882
threshold=0.15440151592863346 -0.70601371449989025 1.104935547350004 -0.82680544024109881 0.28586800521308947 -0.5724546000631876 -0.57078893431829503
decision_type=2 2 2 2 2 2 2
left_child=2 5 3 -1 -3 -2 -4
right_child=1 4 6 -5 -6 -7 -8
leaf_value=0.00061603383103478113 0.0021339655724407487 0.00087092797918698504 0 -0.00031303995517862129 6.1469303785418903e-05 0.0010705264950775012 0.0012327164855039079
leaf_weight=187.42877453565598 109.12317544221878 439.90896293520927 29.578923866152763 710.73380756378174 264.40031568706036 196.10157366096973 121.90851850807667
leaf_count=512 192 1093 91 2276 749 441 293
internal_value=0 0.000873463 4.39849e-05 -0.000107951 0.000580957 0.0015033 0.000973565
internal_weight=0 1009.53 1049.65 898.163 704.309 305.225 151.487
internal_count=5647 2475 3172 2788 1842 633 384
is_linear=0
shrinkage=0.00183311


Tree=51
num_leaves=8
num_cat=0
split_feature=21 64 62 25 25 49 65
split_gain=97.8558 59.5281 52.7366 41.7595 36.8993 25.3345 22.3141
threshold=0.39377902494620215 -0.53510058531911497 -0.83171231496315945 -1.0621554615590509 0.28586800521308947 -0.037252130421826825 0.28988135069904869
decision_type=2 2 2 2 2 2 2
left_child=1 3 -3 -1 6 -6 -2
right_child=4 2 -4 -5 5 -7 -8
leaf_value=0.0018709794762833435 0.0008087400015533904 -0.0010804717154767852 6.0238224518790117e-05 0.00034703884943673913 -0.00016323803505449429 0.00085562763106683656 0.0016652649659504512
leaf_weight=78.961947947740555 305.88989391922951 149.02446366846561 758.7818206101656 259.18137650191784 135.94478400051594 147.39895632863045 223.97601710259914
leaf_count=158 753 552 2262 718 396 359 449
internal_value=0 0.000108654 -0.000122834 0.000746601 0.000913282 0.000344395 0.00119698
internal_weight=0 1245.95 907.806 338.143 813.21 283.344 529.866
internal_count=5647 3690 2814 876 1957 755 1202
is_linear=0
shrinkage=0.00178689


Tree=52
num_leaves=8
num_cat=0
split_feature=16 19 18 8 23 8 64
split_gain=135.976 65.9429 51.0793 66.4903 43.0277 34.5223 22.3842
threshold=-0.3251627478699432 -0.33481940070982469 0.92939545857552919 -0.26536475995026898 -0.42849656951077181 1.565140814170378 1.0172317908282633
decision_type=2 2 2 2 2 2 2
left_child=1 4 3 -2 -1 -3 -4
right_child=2 5 6 -5 -6 -7 -8
leaf_value=0.00016314638799210524 -0.00018430116475152299 0.00028768589800513958 0.00063735292268602079 0.00027577119854918768 0.0010252007991421474 0.0010688747236698882 -3.2104517526474979e-05
leaf_weight=62.374364286661148 362.01167467236519 386.10503298044205 210.48749431967735 572.52025933563709 336.4939421415329 48.68094590306282 30.276657596230507
leaf_count=184 1227 1106 553 1669 708 97 103
internal_value=0 0.000645865 0.000189662 9.34873e-05 0.000903207 0.000394124 0.00053871
internal_weight=0 833.654 1175.3 934.532 398.868 434.786 240.764
internal_count=5647 2095 3552 2896 892 1203 656
is_linear=0
shrinkage=0.000850874


Tree=53
num_leaves=8
num_cat=0
split_feature=56 57 8 3 10 59 60
split_gain=94.7786 54.1832 60.1492 41.8344 39.3486 15.3753 9.0154
threshold=-0.51025778268062716 -0.94267076076309719 -0.4157602396937114 0.52141637497857707 -0.29697536753108456 0.31051639614616378 -0.037957286241127729
decision_type=2 2 2 2 2 2 2
left_child=3 5 -3 4 -1 -2 -5
right_child=1 2 -4 6 -6 -7 -8
leaf_value=0.00094764757086196125 0.00096246749717297873 -0.00057475299203048899 0.00021134619375911217 0.0016258573445790442 1.8796847892625641e-06 0.00018221119504407279 0.00079147201254508453
leaf_weight=223.89991627633572 190.62298420071602 328.56772722303867 710.21540169417858 155.1628820002079 214.51889036595821 123.93635632097721 110.79442673921585
leaf_count=524 469 1098 2006 306 626 354 264
internal_value=0 0.000130889 -3.2213e-05 0.000830165 0.000505127 0.00068351 0.00132296
internal_weight=0 1353.34 1038.78 704.376 438.419 314.559 265.957
internal_count=5647 3927 3104 1720 1150 823 570
is_linear=0
shrinkage=0.00153062


Tree=54
num_leaves=8
num_cat=0
split_feature=16 21 21 0 25 62 50
split_gain=95.836 57.4287 45.5719 44.0314 29.0908 25.1712 22.8664
threshold=-0.3251627478699432 0.038566002471486602 0.39377902494620215 -0.63045559204330204 0.095243927195692649 -0.77430929334141585 0.50142173239330801
decision_type=2 2 2 2 2 2 2
left_child=1 5 3 -2 -3 -1 -4
right_child=2 4 6 -5 -6 -7 -8
leaf_value=-0.00038298246169759164 0.00041422156081603997 0.001314440175052179 0.00012919881430670336 -0.00035035924269862315 0.00048742124041198723 0.00046839782451608129 0.00082267991147034754
leaf_weight=84.290448814630508 206.28182169795036 311.6986718326807 260.42438040673733 553.02770335972309 174.57733358442783 279.50456944108009 188.31147696077824
leaf_count=285 576 628 720 1799 430 752 457
internal_value=0 0.000712049 7.53439e-05 -0.000133007 0.00103799 0.00025141 0.000439782
internal_weight=0 850.071 1208.05 759.31 486.276 363.795 448.736
internal_count=5647 2095 3552 2375 1058 1037 1177
is_linear=0
shrinkage=0.00143862


Tree=55
num_leaves=8
num_cat=0
split_feature=8 30 15 3 25 3 19
split_gain=127.957 77.5134 61.6057 48.7606 46.5089 43.1868 19.5145
threshold=0.15115666490892241 -0.23882425469265309 -0.67057893391051981 0.39494832063786206 -0.25088225289810712 0.60980333529664499 0.16541545849238803
decision_type=2 2 2 2 2 2 2
left_child=1 4 6 -3 -1 -4 -2
right_child=2 3 5 -5 -6 -7 -8
leaf_value=0.00053192504043531649 0.00075835399091665615 -0.00011952333502012056 0.00019091913977651776 0.00021827095348859234 0.00011792314851877724 0.00052302898326851992 0.00033608037827005118
leaf_weight=193.55742754042149 219.38713084161282 409.60336336493492 423.1758286356926 218.65666419267654 216.49891571700573 230.39988711476326 90.012014165520668
leaf_count=472 454 1404 1237 635 652 556 237
internal_value=0 0.000127831 0.000427949 0 0.000323361 0.000314795 0.000650539
internal_weight=0 1038.32 962.975 628.26 410.056 653.576 309.399
internal_count=5647 3163 2484 2039 1124 1793 691
is_linear=0
shrinkage=0.000582694


Tree=56
num_leaves=8
num_cat=0
split_feature=16 21 62 25 31 10 65
split_gain=94.4114 70.961 49.8354 41.6702 22.2097 14.2407 8.40472
threshold=-1.1927289722153176 0.2325909977739555 -0.71822463279829818 0.28586800521308947 -0.097331686584987823 -0.89766571252283311 -0.57016090637685612
decision_type=2 2 2 2 2 2 2
left_child=4 2 -2 -3 6 -6 -1
right_child=1 3 -4 -5 5 -7 -8
leaf_value=0 -0.00085836401351896548 0.00099908996538790491 0.00015330808457328734 8.913423923740337e-05 0.0010239016629287796 -0.0002219806954078191 0.0018876128862671945
leaf_weight=12.78901159763336 197.58921605348587 498.07612790167332 782.45944286882877 282.78791651129723 72.206124126911163 33.161880686879158 177.52630572021008
leaf_count=34 707 1189 2310 792 171 103 341
internal_value=0 0.000273611 -4.54957e-05 0.000682352 0.00139276 0.000565193 0.00178499
internal_weight=0 1760.91 980.049 780.864 295.683 105.368 190.315
internal_count=5647 4998 3017 1981 649 274 375
is_linear=0
shrinkage=0.0018221


Tree=57
num_leaves=8
num_cat=0
split_feature=16 24 3 43 30 10 6
split_gain=135.073 88.4449 78.0727 55.7628 35.241 14.8329 10.2222
threshold=-1.1927289722153176 -1.0706726868829493 0.70506927854950019 0.16612810160354771 -0.077027323149172988 -0.98865152909461795 -0.84642417773638823
decision_type=2 2 2 2 2 2 2
left_child=4 3 -3 -2 6 -6 -1
right_child=1 2 -4 -5 5 -7 -8
leaf_value=0 -0.00021553765580317456 -0.00049412893642844155 -8.2898273946320237e-05 0.0004746820865814713 0.00011528520432442183 -0.00041624041050455864 0.00052182718238360344
leaf_weight=19.433278575539589 148.5593955218792 1119.9308049827814 385.63718850910664 115.43079151213169 69.121348634362221 42.789285004138947 151.84104372560978
leaf_count=50 408 3347 1006 237 164 129 306
internal_value=0 -0.000319844 -0.000391628 7.65712e-05 0.000239869 -6.71999e-05 0.000456348
internal_weight=0 1769.56 1505.57 263.99 283.185 111.911 171.274
internal_count=5647 4998 4353 645 649 293 356
is_linear=0
shrinkage=0.000764547


Tree=58
num_leaves=8
num_cat=0
split_feature=21 24 64 0 24 64 17
split_gain=182.088 72.1364 67.8623 56.9949 52.3029 34.0372 31.172
threshold=0.15440151592863346 -1.0706726868829493 0.028962469161045844 -0.63045559204330204 -0.76119686632367511 -0.53510058531911497 -0.24914571174544506
decision_type=2 2 2 2 2 2 2
left_child=1 5 4 -3 -2 -1 -4
right_child=2 3 6 -5 -6 -7 -8
leaf_value=0.00038097316473142419 0.00053175729618009813 -0.00012075496446987037 2.8397189963674835e-05 -0.00048945302794883567 6.7692364600316059e-05 -0.00015592662118231308 -0.0002682779905102021
leaf_weight=57.222421929240227 117.63599763810635 230.29502035677433 218.08214269578457 658.80885508656502 393.54171352088451 135.40214259922504 263.78777372837067
leaf_count=115 220 625 542 2060 959 372 754
internal_value=0 -0.000325903 2.90376e-05 -0.00039808 0.000183511 0 -0.000129498
internal_weight=0 1081.73 993.048 889.104 511.178 192.625 481.87
internal_count=5647 3172 2475 2685 1179 487 1296
is_linear=0
shrinkage=0.000603154


Tree=59
num_leaves=8
num_cat=0
split_feature=16 19 57 8 23 24 2
split_gain=94.0918 56.4468 47.1363 51.3329 33.0443 32.0916 17.2888
threshold=-0.24283651864088041 -0.33481940070982469 -0.94267076076309719 -0.26536475995026898 -0.42849656951077181 -0.2045439803962957 -0.8019242413303439
decision_type=2 2 2 2 2 2 2
left_child=1 4 6 -4 -1 -3 -2
right_child=2 5 3 -5 -6 -7 -8
leaf_value=0 0.0011909094910800781 0.00081312041980185481 -0.00075164797761737012 0.00013047239460195744 0.0014864911296305085 -9.9370090296404054e-05 0.00011306690748704537
leaf_weight=69.338445529341698 120.93404546380043 232.2179706543684 352.86750364303589 559.4026780128479 360.07184191048145 257.41714312136173 117.01234635710716
leaf_count=196 289 581 1165 1581 759 744 332
internal_value=0 0.00077459 -6.2957e-06 -0.000203879 0.00126467 0.000320398 0.000706902
internal_weight=0 919.045 1150.22 912.27 429.41 489.635 237.946
internal_count=5647 2280 3367 2746 955 1325 621
is_linear=0
shrinkage=0.00183828


Tree=60
num_leaves=8
num_cat=0
split_feature=16 6 24 8 62 43 10
split_gain=140.394 68.4431 56.9417 52.5646 51.8727 44.3718 35.0127
threshold=-0.3251627478699432 0.60970833982604389 -1.0025097833197105 1.0566175665012232 -0.89324919005980419 0.16612810160354771 1.0000000180025095e-35
decision_type=2 2 2 2 2 2 2
left_child=1 4 5 -4 -1 -2 -3
right_child=2 6 3 -5 -6 -7 -8
leaf_value=-0.00070551282165546875 -0.00034094310923147984 0.00051274373212407162 -0.00058160714152432963 0 -8.779372367449226e-06 0.00049891107937423179 -0.00022703745738747013
leaf_weight=96.795135319232941 105.1192906498909 241.13537310063839 897.39945286512375 149.20628280937672 450.52808991074562 78.457513228058815 49.104191437363625
leaf_count=307 300 506 2707 382 1146 163 136
internal_value=0 3.16584e-05 -0.000424582 -0.000502565 -0.000143891 9.01175e-07 0.000372872
internal_weight=0 837.563 1230.18 1046.61 547.323 183.577 290.24
internal_count=5647 2095 3552 3089 1453 463 642
is_linear=0
shrinkage=0.000868123


Tree=61
num_leaves=8
num_cat=0
split_feature=21 24 29 15 34 8 65
split_gain=94.2769 52.2239 53.2183 46.9404 28.7032 26.9651 25.6325
threshold=0.15440151592863346 -1.0706726868829493 -0.24485437002282162 -0.48476298225385306 0.084156998392495561 -0.46413805747616682 -0.81737815567232086
decision_type=2 2 2 2 2 2 2
left_child=1 5 -3 6 -5 -1 -2
right_child=3 2 -4 4 -6 -7 -8
leaf_value=0 9.8749702932219674e-05 0.00019287502852239353 -0.00055142430409432959 -1.4586591240038799e-05 0.00060825707891369477 0.0011052418783250842 0.0011794540515842325
leaf_weight=87.000071227550507 77.059394270181656 358.61701565980911 509.95878176391125 310.88587245345116 315.68063162267208 107.15688119828701 307.35751427710056
leaf_count=252 201 1013 1672 873 765 235 636
internal_value=0 -7.30136e-05 -0.000237038 0.00056418 0.000290745 0.000615416 0.000983829
internal_weight=0 1062.73 868.576 1010.98 626.567 194.157 384.417
internal_count=5647 3172 2685 2475 1638 487 837
is_linear=0
shrinkage=0.00150738


Tree=62
num_leaves=8
num_cat=0
split_feature=16 21 0 65 30 52 30
split_gain=91.1334 67.368 48.3953 31.8785 24.7513 17.1936 15.1555
threshold=-1.1927289722153176 0.2325909977739555 -0.63045559204330204 -0.85705886871737824 0.036853364390451712 -0.4688983877197293 -1.3494829805443873
decision_type=2 2 2 2 2 2 2
left_child=4 2 -2 -3 6 -6 -1
right_child=1 3 -4 -5 5 -7 -8
leaf_value=0 0.00035628261108039638 -8.1765196562346871e-05 -0.00033492718323536351 0.00055110328627530907 0.00065854161809481948 -0.00048706795757333323 0.0013111339784848055
leaf_weight=10.611247256398199 256.95278537273407 185.16821843385696 736.77183368802071 598.60486347973347 69.39725436270237 29.019583702087402 185.90002325177193
leaf_count=31 698 535 2319 1446 163 93 362
internal_value=0 8.73098e-05 -0.000149151 0.000394106 0.000925391 0.000253751 0.00121728
internal_weight=0 1777.5 993.725 783.773 294.928 98.4168 196.511
internal_count=5647 4998 3017 1981 649 256 393
is_linear=0
shrinkage=0.00139489


Tree=63
num_leaves=8
num_cat=0
split_feature=21 24 15 29 3 30 64
split_gain=156.057 66.5232 61.5896 59.1366 44.2145 31.6149 19.9311
threshold=0.15440151592863346 -1.0706726868829493 -0.48476298225385306 -0.24485437002282162 0.15487118106269046 0.096502682311730675 0.63752776306454473
decision_type=2 2 2 2 2 2 2
left_child=1 5 6 -3 -4 -1 -2
right_child=2 3 4 -5 -6 -7 -8
leaf_value=0.00080993154389307561 0.0009782346175883454 0.00024878763775489115 0.00010462426881367036 -0.00021354853246068647 0.0005935028179062206 2.3139734319157584e-05 0.00040376331305648668
leaf_weight=118.73160436749458 287.09676706790924 350.33104768395424 277.35561026632786 498.62468545138836 337.79395051300526 71.767356902360916 96.689900979399681
leaf_count=270 589 1013 806 1672 832 217 248
internal_value=0 8.27474e-05 0.000568605 -1.79124e-05 0.000381753 0.000540939 0.00085001
internal_weight=0 1039.45 998.936 848.956 615.15 190.499 383.787
internal_count=5647 3172 2475 2685 1638 487 837
is_linear=0
shrinkage=0.000868895


Tree=64
num_leaves=8
num_cat=0
split_feature=21 24 15 62 3 30 43
split_gain=161.877 69.0367 61.604 59.7946 44.9229 32.8964 21.1833
threshold=0.15440151592863346 -1.0706726868829493 -0.48476298225385306 -0.77430929334141585 0.15487118106269046 0.096502682311730675 -0.83243794829371365
decision_type=2 2 2 2 2 2 2
left_child=1 5 6 -3 -4 -1 -2
right_child=2 3 4 -5 -6 -7 -8
leaf_value=0.00076079647538266964 0.00032483369838971494 -0.00046182197637000867 9.9967618377039773e-05 7.7684403816162024e-05 0.00055646473142236192 1.9347407135987101e-05 0.00089986013959563686
leaf_weight=118.49285469949245 81.120959788560867 158.80818539857864 277.06511145830154 691.21968527138233 337.27675653994083 71.796863824129105 302.25864328444004
leaf_count=270 210 584 806 2101 832 217 627
internal_value=0 7.39852e-05 0.000531931 -2.08763e-05 0.000358663 0.000506532 0.000792752
internal_weight=0 1040.32 997.721 850.028 614.342 190.29 383.38
internal_count=5647 3172 2475 2685 1638 487 837
is_linear=0
shrinkage=0.000804349


Tree=65
num_leaves=8
num_cat=0
split_feature=56 18 21 16 25 23 29
split_gain=90.362 49.8365 48.4056 45.6553 33.3167 32.1781 30.5206
threshold=-0.51025778268062716 0.71556195518893806 0.15440151592863346 -0.3251627478699432 0.28586800521308947 -0.42849656951077181 0.87355476749504446
decision_type=2 2 2 2 2 2 2
left_child=3 2 -2 5 -3 -1 -5
right_child=1 4 -4 6 -6 -7 -8
leaf_value=0 -0.00076723866280375248 0.0011139578735292225 0.00025282349496604569 0.00069607388159670283 -0.00024080662900611519 0.0019021938660732922 -0.0011157538027777329
leaf_weight=62.374742239713669 485.65060968697071 291.28153342008591 465.59257742762566 284.89034000039101 122.67121383547783 307.45713314414024 51.07684999704361
leaf_count=175 1589 726 1243 743 369 632 170
internal_value=0 2.29832e-05 -0.000258468 0.00104007 0.000689855 0.00160103 0.000379193
internal_weight=0 1365.2 951.243 705.799 413.953 369.832 335.967
internal_count=5647 3927 2832 1720 1095 807 913
is_linear=0
shrinkage=0.00229434


Tree=66
num_leaves=8
num_cat=0
split_feature=8 24 24 21 12 64 25
split_gain=87.4887 49.9366 46.7033 50.5962 40.6725 15.6245 8.04937
threshold=0.15115666490892241 -1.0025097833197105 -1.8546221255018762 0.52066789692967064 -1.1470249631937812 0.12272540216140836 -1.248967199639162
decision_type=2 2 2 2 2 2 2
left_child=2 5 6 -4 -3 -2 -1
right_child=1 4 3 -5 -6 -7 -8
leaf_value=0.0016717976527954965 0.0019305907642055713 0.0015678711442591604 -0.00037896360261815249 0.00045563354579645203 0.0003101632310257154 0.0004794882852487089 0
leaf_weight=44.110483139753342 101.52555583417416 81.815711945295334 750.33276873826981 272.55278843641281 758.44966220855713 50.675855830311775 10.564020812511442
leaf_count=85 180 167 2358 691 2012 125 29
internal_value=0 0.000628004 -5.80278e-05 -0.000148233 0.000449425 0.00152369 0.00138291
internal_weight=0 992.467 1077.56 1022.89 840.265 152.201 54.6745
internal_count=5647 2484 3163 3049 2179 305 114
is_linear=0
shrinkage=0.00168345


Tree=67
num_leaves=8
num_cat=0
split_feature=15 3 62 64 0 6 19
split_gain=88.0721 79.7748 49.9842 36.841 31.0492 28.5725 11.2916
threshold=-0.82680544024109881 0.70506927854950019 -0.71822463279829818 0.50418617209793781 0.70209646999882558 -0.74144404327918012 0.16541545849238803
decision_type=2 2 2 2 2 2 2
left_child=4 2 -2 -3 5 -1 -6
right_child=1 3 -4 -5 6 -7 -8
leaf_value=-0.00033632712206651237 -0.0007935997540093353 0.0009074732389671049 3.1052823497873378e-06 -1.8551357258629082e-05 0.0017939281486369304 0.00076158411562401052 0
leaf_weight=57.810214176774025 234.37699350714684 313.35496798157692 900.80043093860149 134.91874904930592 90.57551434636116 325.29440090060234 12.076873913407324
leaf_count=177 794 727 2582 392 162 779 34
internal_value=0 5.80251e-05 -0.000157838 0.000616055 0.000822238 0.000575917 0.00161206
internal_weight=0 1583.45 1135.18 448.274 485.757 383.105 102.652
internal_count=5647 4495 3376 1119 1152 956 196
is_linear=0
shrinkage=0.0015632


Tree=68
num_leaves=8
num_cat=0
split_feature=15 3 24 8 64 8 1
split_gain=125.592 81.431 57.7964 48.2681 48.1944 34.1995 5.10685
threshold=-0.52959347929705192 0.39494832063786206 -0.87875335406228583 1.0000000180025095e-35 -1.0065105714959157 1.0566175665012232 -0.028428832952494733
decision_type=2 2 2 2 2 2 2
left_child=2 4 6 -4 -2 -3 -1
right_child=1 5 3 -5 -6 -7 -8
leaf_value=0.0004464110195421535 0.00035669939577309565 0.00022665165273881203 5.5305154861367307e-05 0.00050313308324126827 -8.4136409108863562e-05 0.00069237079676308572 0.00092135008664738526
leaf_weight=59.85052502155304 126.56537601351738 443.05100172758102 191.98979546129704 303.88077612221241 695.95347306132317 94.690785691142082 127.90798461437225
leaf_count=144 330 1226 567 726 2206 203 245
internal_value=0 0.000118009 0.000473563 0.000337811 -1.10842e-05 0.000319365 0.000799834
internal_weight=0 1360.26 683.629 495.871 822.519 537.742 187.759
internal_count=5647 3965 1682 1293 2536 1429 389
is_linear=0
shrinkage=0.000668704


Tree=69
num_leaves=8
num_cat=0
split_feature=21 16 24 62 65 8 25
split_gain=157.1 68.5378 66.0366 64.8293 40.8572 29.365 27.0499
threshold=0.15440151592863346 -0.3251627478699432 -1.0706726868829493 -0.77430929334141585 -0.70784488174205773 -0.46413805747616682 0.44908040517212011
decision_type=2 2 2 2 2 2 2
left_child=2 6 5 -4 -3 -1 -2
right_child=1 4 3 -5 -6 -7 -8
leaf_value=7.929994130165106e-05 0.00077422837758913559 0 -0.00040537733541653131 7.8247992727550864e-05 0.00040212127076834846 0.00067458913531070791 0.00030846279987753759
leaf_weight=84.876147225499153 329.87089346349239 162.74239179491997 159.3373090326786 688.48412965238094 390.39933931827545 105.43943753838539 114.41087232530117
leaf_count=252 675 505 584 2101 1002 235 293
internal_value=0 0.000458092 6.92398e-05 -1.0735e-05 0.000281766 0.000433119 0.000665577
internal_weight=0 997.423 1038.14 847.821 553.142 190.316 444.282
internal_count=5647 2475 3172 2685 1507 487 968
is_linear=0
shrinkage=0.00069252


Tree=70
num_leaves=8
num_cat=0
split_feature=21 24 15 25 62 8 56
split_gain=128.736 62.5559 61.0383 47.7936 45.8908 28.7105 14.5215
threshold=0.15440151592863346 -1.0706726868829493 -1.0072429098258351 -1.248967199639162 -0.77430929334141585 -0.46413805747616682 -0.46905496749428927
decision_type=2 2 2 2 2 2 2
left_child=1 5 6 -4 -3 -1 -2
right_child=2 4 3 -5 -6 -7 -8
leaf_value=-0.00035520220665397154 0.00064517116077945815 -0.00096525234953314689 0.00047358756611887376 -0.00020252043726046089 -0.00043335640904684628 0.00030147372666734063 0.00011738703407000686
leaf_weight=87.498537287116051 99.022268295288086 170.74705968797207 81.157308131456375 697.17059054970741 719.68629287183285 104.41155228018761 101.71376371383667
leaf_count=252 193 584 169 1871 2101 235 242
internal_value=0 -0.000447924 -1.0745e-05 -0.00012471 -0.000544129 0 0.000405204
internal_weight=0 1082.34 979.064 778.328 890.433 191.91 200.736
internal_count=5647 3172 2475 2040 2685 487 435
is_linear=0
shrinkage=0.000866068


Tree=71
num_leaves=8
num_cat=0
split_feature=16 24 40 43 30 30 46
split_gain=88.9116 68.809 54.3708 45.0686 24.0637 14.5618 7.3139
threshold=-1.1927289722153176 -1.0706726868829493 -0.045136522884389969 0.16612810160354771 0.036853364390451712 -1.3494829805443873 -0.62459612166706624
decision_type=2 2 2 2 2 2 2
left_child=4 3 -3 -2 5 -1 -6
right_child=1 2 -4 -5 6 -7 -8
leaf_value=0 0.00014612975508564732 -0.00033212301191802633 0.00018453104018392459 0.001308073056114035 0.00070503600229371148 0.0012474821776863568 0
leaf_weight=10.60873559117317 150.55968406796455 659.94154347479343 847.95927168428898 120.18837180733681 33.805209800601006 185.57831506431103 64.672690972685814
leaf_count=31 408 2034 2319 237 76 362 180
internal_value=0 7.2119e-05 -3.79141e-05 0.000697211 0.000877545 0.00115776 0.000233733
internal_weight=0 1778.65 1507.9 270.748 294.665 196.187 98.4779
internal_count=5647 4998 4353 645 649 393 256
is_linear=0
shrinkage=0.00135729


Tree=72
num_leaves=8
num_cat=0
split_feature=21 24 29 24 31 8 43
split_gain=86.9032 56.7419 53.1294 35.757 26.8921 26.5737 21.4939
threshold=0.35369668319437891 -1.0706726868829493 0.31924511162192099 -0.27519274968927315 -0.26890607662187854 1.0566175665012232 1.0000000180025095e-35
decision_type=2 2 2 2 2 2 2
left_child=1 4 -3 6 -1 -5 -2
right_child=3 2 -4 5 -6 -7 -8
leaf_value=0.0017320310950603331 0.0007266023295646487 4.09565173856479e-05 -0.0010117029243743277 0.00013334995679537942 0.00011380444238795461 0.0012903499122109061 0.0020185465225604385
leaf_weight=100.13672114908695 161.853127643466 683.49389141798019 324.35577362775803 393.328992664814 118.78395107388496 131.00645071268082 159.42302258312702
leaf_count=209 397 1978 1087 1050 330 290 306
internal_value=0 -6.5008e-05 -0.000291322 0.000834244 0.000917939 0.000449534 0.00141703
internal_weight=0 1226.77 1007.85 845.612 218.921 524.335 321.276
internal_count=5647 3604 3065 2043 539 1340 703
is_linear=0
shrinkage=0.00217771


Tree=73
num_leaves=8
num_cat=0
split_feature=15 43 30 23 25 62 64
split_gain=122.166 81.7765 71.2467 58.3757 42.5279 37.0053 31.1906
threshold=-0.52959347929705192 0.44941045150770181 -0.04749290994391072 0.572191931806878 1.0000000180025095e-35 -0.83171231496315945 0.5677689727831331
decision_type=2 2 2 2 2 2 2
left_child=2 3 6 -2 -3 -4 -1
right_child=1 4 5 -5 -6 -7 -8
leaf_value=0.00033956134288851174 -0.00046328461249395562 0.00016287375056621482 -0.00063954952184452549 -9.6956273603449777e-05 -0.00023882155856015956 -4.1399890410651652e-05 -6.3465615467807554e-05
leaf_weight=315.43348218500614 691.92571619153023 229.30472803115845 52.769452080130577 276.42491936683655 197.9741535782814 225.21173338592052 89.373148545622826
leaf_count=680 2128 540 178 738 559 587 237
internal_value=0 -0.000259314 6.96596e-05 -0.00036262 -1.71726e-05 -0.000173719 0.000243866
internal_weight=0 1395.63 682.788 968.351 427.279 277.981 404.807
internal_count=5647 3965 1682 2866 1099 765 917
is_linear=0
shrinkage=0.000643937


Tree=74
num_leaves=8
num_cat=0
split_feature=21 8 43 57 24 24 12
split_gain=175.629 64.8967 60.4346 45.3899 43.6413 34.4976 26.3758
threshold=0.15440151592863346 0.056016340930470331 -0.27091062327873733 -0.94267076076309719 -0.70439505128582902 -0.87875335406228583 -0.23553604247348367
decision_type=2 2 2 2 2 2 2
left_child=1 3 6 -1 -4 -3 -2
right_child=2 5 4 -5 -6 -7 -8
leaf_value=0.00017170599440592579 0.00035286256245830428 0.00050113427442794129 0.00074841905759942561 -0.00017993556946676914 0.00036251055086241289 9.7661538342797097e-05 5.0952522890757659e-05
leaf_weight=139.73566824197769 159.41054935753345 85.065080806612968 146.88731372356415 462.86018860340118 440.08180555701256 363.13492147624493 255.06856752932072
leaf_count=392 393 190 272 1531 1069 1059 741
internal_value=0 2.27564e-05 0.000351036 -9.36224e-05 0.00046838 0.000184058 0.000175602
internal_weight=0 1050.8 1001.45 602.596 586.969 448.2 414.479
internal_count=5647 3172 2475 1923 1341 1249 1134
is_linear=0
shrinkage=0.000556758


Tree=75
num_leaves=8
num_cat=0
split_feature=21 16 3 64 3 25 25
split_gain=87.1958 46.737 45.2868 48.7045 35.6004 25.4664 14.78
threshold=0.15440151592863346 -0.70601371449989025 0.70506927854950019 -1.0065105714959157 0.39494832063786206 1.0000000180025095e-35 -0.5724546000631876
decision_type=2 2 2 2 2 2 2
left_child=2 6 3 -1 -3 -4 -2
right_child=1 4 5 -5 -6 -7 -8
leaf_value=0.00060934590399215106 0.001642676306033446 0 0.00093445213408294972 -0.00047449062994416415 0.00071953350348305371 -4.9674518734340834e-05 0.00072469911341285298
leaf_weight=120.94839112460613 106.43668839335442 403.72611364722252 139.10524871945381 695.18133702874184 305.14629209041595 109.1220074146986 194.38140758872032
leaf_count=308 192 1117 329 2212 725 323 441
internal_value=0 0.000550352 -0.000111897 -0.000302502 0.000304211 0.000480172 0.00109323
internal_weight=0 1009.69 1064.36 816.13 708.872 248.227 300.818
internal_count=5647 2475 3172 2520 1842 652 633
is_linear=0
shrinkage=0.00162797


Tree=76
num_leaves=8
num_cat=0
split_feature=21 16 35 15 65 25 62
split_gain=166.456 88.2395 57.9898 44.7299 39.4442 35.0847 20.6455
threshold=0.15440151592863346 -0.3251627478699432 1.104935547350004 -0.82680544024109881 -0.70784488174205773 0.095243927195692649 -0.61308435583750454
decision_type=2 2 2 2 2 2 2
left_child=2 5 3 -1 -3 -2 -4
right_child=1 4 6 -5 -6 -7 -8
leaf_value=-6.8777911381868827e-05 0.00042988224880235163 -0.00037481938079247359 -0.00037630921163666215 -0.00045195665908363071 0 1.6359994071232651e-05 0.00018878590614325555
leaf_weight=191.73317910730839 275.57056024670601 169.31175750494003 30.996014967560768 741.59703280031681 394.46521691977978 159.38693791627884 122.35847994685173
leaf_count=512 570 505 97 2276 1002 398 287
internal_value=0 6.05453e-05 -0.000314461 -0.00037714 -0.00010976 0.000286885 4.80584e-05
internal_weight=0 998.734 1086.68 933.33 563.777 434.957 153.354
internal_count=5647 2475 3172 2788 1507 968 384
is_linear=0
shrinkage=0.000667787


Tree=77
num_leaves=8
num_cat=0
split_feature=16 19 40 0 3 59 6
split_gain=135.576 66.4054 54.5153 37.3164 33.4866 29.0237 20.0815
threshold=-0.3251627478699432 -0.33481940070982469 1.0000000180025095e-35 -0.63045559204330204 0.65617609251993347 -0.42676605618728009 -0.18935233848435226
decision_type=2 2 2 2 2 2 2
left_child=1 6 3 -2 -3 -4 -1
right_child=2 4 5 -5 -6 -7 -8
leaf_value=0.00032989976106181527 0.00018836196652881961 8.5083051960769629e-05 0.00050139219949056667 -0.00018071248764869562 0.00051013141928639416 0.00011485433509831758 0.00072228894067647765
leaf_weight=134.76171934604645 156.09433682262897 323.27490417659283 116.18871241807938 464.88327321410179 121.96406243741512 472.27795676887035 270.97642032802105
leaf_count=338 433 919 276 1496 284 1347 554
internal_value=0 0.00040497 5.25244e-05 -8.24571e-05 0.00021221 0.00019953 0.000604435
internal_weight=0 850.977 1209.44 620.978 445.239 588.467 405.738
internal_count=5647 2095 3552 1929 1203 1623 892
is_linear=0
shrinkage=0.000670615


Tree=78
num_leaves=8
num_cat=0
split_feature=15 43 30 23 25 57 64
split_gain=87.9144 58.7408 54.3941 45.2339 36.9459 25.2683 21.7281
threshold=-0.52959347929705192 0.44941045150770181 -0.04749290994391072 0.572191931806878 1.0000000180025095e-35 0.34001644648046792 0.63752776306454473
decision_type=2 2 2 2 2 2 2
left_child=2 3 6 -2 -3 -4 -1
right_child=1 4 5 -5 -6 -7 -8
leaf_value=0.0012891402821250445 -0.00051640493210690992 0.00092640981028870592 -0.00027131062301652875 0.0002789708099284518 -3.0733548759526513e-05 0.00076148166926764472 0.00019858293339174835
leaf_weight=325.95998154580593 678.91710910201073 231.83686256408691 176.88047398626804 277.06910634040833 198.4256059974432 101.06421880424023 85.155351683497429
leaf_count=691 2128 540 521 738 559 244 226
internal_value=0 -3.88403e-05 0.000695991 -0.00027779 0.000472012 8.38297e-05 0.00108615
internal_weight=0 1386.25 689.06 955.986 430.262 277.945 411.115
internal_count=5647 3965 1682 2866 1099 765 917
is_linear=0
shrinkage=0.0016958


Tree=79
num_leaves=8
num_cat=0
split_feature=56 43 8 16 23 29 14
split_gain=86.1965 52.9797 49.2669 44.4832 31.6732 28.6315 19.6267
threshold=-0.51025778268062716 -0.83462127992546298 1.1439893726292578 -0.3251627478699432 -0.42849656951077181 0.87355476749504446 0.26663007371672159
decision_type=2 2 2 2 2 2 2
left_child=3 6 -3 4 -1 -5 -2
right_child=1 2 -4 5 -6 -7 -8
leaf_value=0 -0.00025635064590075315 -1.1940713607849079e-05 0.0011426840622652172 0.0004783460027794448 0.0014591463492925271 -0.00097342438124232511 -0.0012869041951300024
leaf_weight=62.451921164989471 183.44414591789246 905.09235133230686 147.54552300274372 285.53969706594944 305.50490698218346 51.231930941343307 133.29141762852669
leaf_count=175 555 2575 334 743 632 170 463
internal_value=0 -5.17485e-05 0.000146233 0.000755443 0.00121168 0.000222609 -0.000728548
internal_weight=0 1369.37 1052.64 704.728 367.957 336.772 316.736
internal_count=5647 3927 2909 1720 807 913 1018
is_linear=0
shrinkage=0.00189128


Tree=80
num_leaves=8
num_cat=0
split_feature=21 16 62 64 30 43 25
split_gain=146.621 68.2939 61.412 55.7579 38.5754 35.4691 12.264
threshold=0.15440151592863346 -0.70601371449989025 -0.83171231496315945 0.85167519009407811 0.036853364390451712 -0.9356130373986058 -0.5724546000631876
decision_type=2 2 2 2 2 2 2
left_child=2 6 4 -4 -1 -3 -2
right_child=1 5 3 -5 -6 -7 -8
leaf_value=0 0.00087237778834511719 0 0.00021714004710031253 -0.00014702483365454047 -0.00054754829070332797 0.00034512151314215072 0.00049023830388252813
leaf_weight=90.362515404820442 109.94813384115696 158.49856720864773 628.22738817334175 227.2780496776104 100.29327826201916 540.33801344037056 195.4108746945858
leaf_count=274 192 477 1761 750 387 1365 441
internal_value=0 0.000388263 4.05747e-05 0.000116789 -0.000281386 0.000267143 0.000648066
internal_weight=0 1004.2 1046.16 855.505 190.656 698.837 305.359
internal_count=5647 2475 3172 2511 661 1842 633
is_linear=0
shrinkage=0.000643937


Tree=81
num_leaves=8
num_cat=0
split_feature=16 24 3 43 6 56 9
split_gain=83.943 63.5068 61.2833 41.1671 14.1596 11.1253 3.93853
threshold=-1.1927289722153176 -1.0706726868829493 0.70506927854950019 0.16612810160354771 0.60970833982604389 -0.51025778268062716 0.50036463533640396
decision_type=2 2 2 2 2 2 2
left_child=4 3 -3 -2 5 -1 -6
right_child=1 2 -4 -5 6 -7 -8
leaf_value=0.0012106861980490094 0.0001763642044755143 -0.00032366701274839216 0.00056966846904338861 0.0017821873684339684 0.0019360013812213266 0.0001013541133530648 7.2581942186161506e-06
leaf_weight=89.591452285647392 150.69044069945812 1116.0192893743515 393.09075435996056 119.86405724287033 102.81369577348232 87.086097255349159 13.923377409577368
leaf_count=192 408 3347 1006 237 191 233 33
internal_value=0 6.82953e-05 -8.41707e-05 0.000937564 0.00120024 0.000728624 0.00178698
internal_weight=0 1779.66 1509.11 270.554 293.415 176.678 116.737
internal_count=5647 4998 4353 645 649 425 224
is_linear=0
shrinkage=0.00196133


Tree=82
num_leaves=8
num_cat=0
split_feature=16 56 24 18 23 65 64
split_gain=138.973 71.1493 53.6438 50.3479 42.0944 40.4909 31.8879
threshold=-0.3251627478699432 -0.51025778268062716 -1.0025097833197105 0.92939545857552919 -0.42849656951077181 1.0000000180025095e-35 -0.34190898766955485
decision_type=2 2 2 2 2 2 2
left_child=1 4 5 -4 -1 -2 -3
right_child=2 6 3 -5 -6 -7 -8
leaf_value=-0.0001910577428436919 -0.00027610255361758723 0.00011183883339567022 -0.00045663017150298832 -4.3553977902354757e-05 0.00041478901437901273 0.00037771584621454102 -0.00025920934362038425
leaf_weight=62.567535862326622 95.088281333446503 176.79248611629009 843.29664577543736 208.19115898013115 299.25609254837036 89.29655434191227 304.9565634727478
leaf_count=175 273 427 2542 547 632 190 861
internal_value=0 5.90121e-05 -0.000315768 -0.000378421 0.000300206 2.51152e-05 -0.000116698
internal_weight=0 843.573 1235.87 1051.49 361.824 184.385 481.749
internal_count=5647 2095 3552 3089 807 463 1288
is_linear=0
shrinkage=0.000718168


Tree=83
num_leaves=8
num_cat=0
split_feature=16 39 40 18 23 8 8
split_gain=141.354 76.3009 53.8152 46.9828 46.2788 42.9936 36.7863
threshold=-0.3251627478699432 0.394757981779298 1.0000000180025095e-35 0.92939545857552919 -0.42849656951077181 1.0566175665012232 0.84650897447616535
decision_type=2 2 2 2 2 2 2
left_child=1 5 3 -2 -3 -1 -4
right_child=2 4 6 -5 -6 -7 -8
leaf_value=-0.00020026878863255764 -0.00045436123657138322 -0.0001802145704780346 -0.0002042436275909459 -3.9295740752075655e-05 0.00032972871103745108 0.0002184144561663735 0.00012486219188285647
leaf_weight=366.87562954425812 509.53942650556564 62.512313902378082 461.79442499577999 128.50541040301323 318.90408797562122 95.49989940226078 135.74411302804947
leaf_count=1027 1590 177 1300 339 678 213 323
internal_value=0 4.65293e-05 -0.000257342 -0.000375652 0.000238331 -0.000106978 -0.000124824
internal_weight=0 843.792 1235.58 638.045 381.416 462.376 597.539
internal_count=5647 2095 3552 1929 855 1240 1623
is_linear=0
shrinkage=0.000577379


Tree=84
num_leaves=8
num_cat=0
split_feature=15 3 42 64 64 24 24
split_gain=84.0931 74.1859 53.3707 35.1853 29.5473 22.5232 12.8778
threshold=-0.82680544024109881 0.70506927854950019 0.60000805678507418 0.50418617209793781 -0.040417905099794212 -0.2045439803962957 1.1714917517919348
decision_type=2 2 2 2 2 2 2
left_child=4 2 -2 -3 6 -6 -1
right_child=1 3 -4 -5 5 -7 -8
leaf_value=0.0011571980872466829 -3.995712420362303e-05 0.0007436423634676622 -0.00079010764310781024 -0.0001067396616877249 0.00065137124561443686 -0.00019586459263983295 0
leaf_weight=212.9800076186657 871.35754826664925 313.41913357377052 270.66055981814861 135.81421560049057 142.48878449201584 105.18625248968601 24.856147170066833
leaf_count=442 2478 727 898 392 341 304 65
internal_value=0 -2.35089e-05 -0.000225913 0.0004737 0.000667548 0.000268687 0.00104291
internal_weight=0 1591.25 1142.02 449.233 485.511 247.675 237.836
internal_count=5647 4495 3376 1119 1152 645 507
is_linear=0
shrinkage=0.00146621


Tree=85
num_leaves=8
num_cat=0
split_feature=56 43 30 3 4 25 19
split_gain=122.467 63.5727 79.3725 52.9344 38.86 25.7452 21.1536
threshold=-0.51025778268062716 -0.83462127992546298 1.0000000180025095e-35 0.52141637497857707 -1.0959023705962039 0.17926122963207228 1.9651720728251265
decision_type=2 2 2 2 2 2 2
left_child=3 6 -3 4 -1 -5 -2
right_child=1 2 -4 5 -6 -7 -8
leaf_value=0.00030770925884072455 -0.00057000417594680654 -9.4366901769644475e-06 -0.00038153747749267749 0.00045280634968468381 -0.00017197030855750615 0 9.6695410323774017e-05
leaf_weight=88.303003221750259 310.25203143060207 568.58649359643459 486.89257517457008 173.72445148229599 349.55496171116829 85.486753791570663 13.394341960549353
leaf_count=192 988 1459 1450 354 958 216 30
internal_value=0 -0.000270034 -0.000184809 6.98985e-05 -6.63031e-05 0.000308364 -0.000532378
internal_weight=0 1379.13 1055.48 697.069 437.858 259.211 323.646
internal_count=5647 3927 2909 1720 1150 570 1018
is_linear=0
shrinkage=0.000667787


Tree=86
num_leaves=8
num_cat=0
split_feature=21 16 35 4 3 42 4
split_gain=89.2583 45.0297 43.3208 38.7578 32.64 17.4 15.9023
threshold=0.15440151592863346 -0.70601371449989025 1.104935547350004 0.74809290586220178 0.39494832063786206 0.28352575511349459 -1.393085798857068
decision_type=2 2 2 2 2 2 2
left_child=2 6 3 -1 -3 -4 -2
right_child=1 4 5 -5 -6 -7 -8
leaf_value=-0.00059921735710750013 0.0022364938217849695 -5.8776217474368545e-05 0.0010946950674005696 0.00030608977373738265 0.0007401006471405827 -0.00012788339049353876 0.00088698678362600304
leaf_weight=712.25661121308804 50.506038323044777 404.17076762020588 106.09149762988091 204.62892934679985 304.75605191290379 47.300700604915619 247.83629959821701
leaf_count=2232 81 1117 245 556 725 139 552
internal_value=0 0.000554037 -0.000225627 -0.00038751 0.00027542 0.000671702 0.00117395
internal_weight=0 1007.27 1070.28 916.886 708.927 153.392 298.342
internal_count=5647 2475 3172 2788 1842 384 633
is_linear=0
shrinkage=0.00189128


Tree=87
num_leaves=8
num_cat=0
split_feature=21 16 24 62 65 6 24
split_gain=138.13 59.7435 57.8045 59.2201 38.2614 29.1805 16.4515
threshold=0.15440151592863346 -0.3251627478699432 -1.0706726868829493 -0.77430929334141585 -0.70784488174205773 -0.22750965582192276 -0.27519274968927315
decision_type=2 2 2 2 2 2 2
left_child=2 6 5 -4 -3 -1 -2
right_child=1 4 3 -5 -6 -7 -8
leaf_value=9.160125593511237e-05 0.00081059402330178258 -4.8832651460137167e-05 -0.00046191818034237137 3.0321013812810352e-05 0.00035989704403772879 0.00071534610086045861 0.00044582655906390858
leaf_weight=110.5585450232029 191.31983806192875 165.22657442092896 160.84922680258751 698.35974901914597 395.14093305170536 82.514812171459198 256.06656302511692
leaf_count=312 370 505 584 2101 1002 175 598
internal_value=0 0.0004089 1.99502e-05 -5.99733e-05 0.000234099 0.000385468 0.000615863
internal_weight=0 1007.75 1052.28 859.209 560.368 193.073 447.386
internal_count=5647 2475 3172 2685 1507 487 968
is_linear=0
shrinkage=0.000744767


Tree=88
num_leaves=8
num_cat=0
split_feature=21 65 3 42 4 0 25
split_gain=147.593 57.3144 54.6615 49.3494 45.5097 44.3025 26.9333
threshold=0.15440151592863346 -0.85705886871737824 0.70506927854950019 0.60000805678507418 -1.5061591850502767 1.3906447631794343 1.0000000180025095e-35
decision_type=2 2 2 2 2 2 2
left_child=2 5 3 -1 -3 -2 -4
right_child=1 4 6 -5 -6 -7 -8
leaf_value=-0.00028182601487831873 -0.00038714162583244514 0.00062352215233576255 0.0001734167049647991 -0.00068106865425386653 7.958380684024437e-05 0.00044660564063214313 -0.00027346473619891819
leaf_weight=610.85259653627872 186.53156992793083 81.879981011152267 138.85258953273296 226.87668339908123 698.31664630770683 29.165554940700531 111.09950336813927
leaf_count=1764 554 151 329 756 1713 57 323
internal_value=0 5.40291e-05 -0.000312167 -0.000396763 0.000143943 -0.000253387 -1.44629e-05
internal_weight=0 995.894 1087.68 837.729 780.197 215.697 249.952
internal_count=5647 2475 3172 2520 1864 611 652
is_linear=0
shrinkage=0.00069252


Tree=89
num_leaves=8
num_cat=0
split_feature=21 62 43 0 65 30 17
split_gain=87.3513 55.2502 56.8278 33.2098 38.1558 33.0079 12.8946
threshold=0.35369668319437891 -0.83171231496315945 -0.83462127992546298 1.1853259506329534 -0.85705886871737824 0.036853364390451712 -0.056498506085317597
decision_type=2 2 2 2 2 2 2
left_child=1 5 -3 4 -2 -1 -5
right_child=3 2 -4 6 -6 -7 -8
leaf_value=-0.00013944226427522468 -0.00035610336703161086 -0.00071432072143223996 0.00026344692362989633 0.0019124243896096369 0.00063395657665176906 -0.0016604935173866798 0.00048641337855416186
leaf_weight=101.92982548475266 154.25691305100918 262.24228170514107 756.69045478105545 81.547349229454994 549.47392590343952 113.98362658917904 57.791059702634811
leaf_count=300 448 841 2034 149 1308 429 138
internal_value=0 -0.000169435 1.77004e-06 0.000587469 0.000404562 -0.000997268 0.00141208
internal_weight=0 1234.85 1018.93 843.069 703.731 215.913 139.338
internal_count=5647 3604 2875 2043 1756 729 287
is_linear=0
shrinkage=0.00182374


Tree=90
num_leaves=8
num_cat=0
split_feature=21 24 29 16 3 25 64
split_gain=82.9811 45.9824 51.6119 44.2019 26.4801 26.233 22.0478
threshold=0.15440151592863346 -1.0706726868829493 -0.24485437002282162 -0.3251627478699432 0.15487118106269046 0.44908040517212011 -0.53510058531911497
decision_type=2 2 2 2 2 2 2
left_child=1 6 -3 5 -5 -2 -1
right_child=3 2 -4 4 -6 -7 -8
leaf_value=0.0015154139026849083 0.0012555827668515865 0.00011147440029014231 -0.00080029569014683369 -0.00024392068555764915 0.00055535125970434195 0.00011424125168496346 8.1040395414729954e-05
leaf_weight=58.393963485956192 322.83316713571548 361.08422915637493 514.4128143042326 272.8072320073843 295.29029233753681 115.33870750665665 136.1264545917511
leaf_count=115 675 1013 1672 779 728 293 372
internal_value=0 -0.000225594 -0.000416075 0.00052644 0.000157957 0.000978511 0.000579164
internal_weight=0 1070.02 875.497 1006.27 568.098 438.172 194.52
internal_count=5647 3172 2685 2475 1507 968 487
is_linear=0
shrinkage=0.00189128


Tree=91
num_leaves=8
num_cat=0
split_feature=16 56 40 57 6 29 25
split_gain=115.518 59.7766 48.8819 45.7516 34.147 25.9667 15.2152
